<?xml version="1.0"?>
<opencv_storage>
<stage6>
  <maxWeakCount>7</maxWeakCount>
  <stageThreshold>-1.9687248468399048e+00</stageThreshold>
  <weakClassifiers>
    <_>
      <internalNodes>
        0 -1 4205 -3.1743757426738739e-02</internalNodes>
      <leafValues>
        -1.3114753365516663e-01 -8.5828346014022827e-01</leafValues></_>
    <_>
      <internalNodes>
        0 -1 139124 -9.3017946928739548e-03</internalNodes>
      <leafValues>
        4.0153214335441589e-01 -5.6368434429168701e-01</leafValues></_>
    <_>
      <internalNodes>
        0 -1 1563 8.6620412766933441e-03</internalNodes>
      <leafValues>
        -5.8632713556289673e-01 3.2927066087722778e-01</leafValues></_>
    <_>
      <internalNodes>
        0 -1 66132 -1.7213344108313322e-03</internalNodes>
      <leafValues>
        4.5532473921775818e-01 -3.7713080644607544e-01</leafValues></_>
    <_>
      <internalNodes>
        0 -1 83459 3.4505538642406464e-02</internalNodes>
      <leafValues>
        -3.9399254322052002e-01 4.1098541021347046e-01</leafValues></_>
    <_>
      <internalNodes>
        0 -1 105385 -2.4466394097544253e-04</internalNodes>
      <leafValues>
        2.6035201549530029e-01 -7.9447013139724731e-01</leafValues></_>
    <_>
      <internalNodes>
        0 -1 154920 2.1593833342194557e-02</internalNodes>
      <leafValues>
        -2.8211408853530884e-01 7.1077954769134521e-01</leafValues></_></weakClassifiers></stage6>
</opencv_storage>
