<?xml version="1.0"?>
<opencv_storage>
<stage3>
  <maxWeakCount>6</maxWeakCount>
  <stageThreshold>-1.8023904561996460e+00</stageThreshold>
  <weakClassifiers>
    <_>
      <internalNodes>
        0 -1 14730 2.8310015797615051e-02</internalNodes>
      <leafValues>
        -9.0126049518585205e-01 -1.0465116053819656e-01</leafValues></_>
    <_>
      <internalNodes>
        0 -1 160405 -5.9469072148203850e-03</internalNodes>
      <leafValues>
        3.8741281628608704e-01 -6.2657392024993896e-01</leafValues></_>
    <_>
      <internalNodes>
        0 -1 20203 1.3374203443527222e-01</internalNodes>
      <leafValues>
        -4.0201383829116821e-01 5.0565809011459351e-01</leafValues></_>
    <_>
      <internalNodes>
        0 -1 153251 -2.9872741550207138e-02</internalNodes>
      <leafValues>
        6.7607736587524414e-01 -2.8434824943542480e-01</leafValues></_>
    <_>
      <internalNodes>
        0 -1 14014 -3.8200718699954450e-04</internalNodes>
      <leafValues>
        3.2802981138229370e-01 -6.9649273157119751e-01</leafValues></_>
    <_>
      <internalNodes>
        0 -1 133602 -5.3240999113768339e-04</internalNodes>
      <leafValues>
        -8.2389569282531738e-01 2.4153624475002289e-01</leafValues></_></weakClassifiers></stage3>
</opencv_storage>
