<?xml version="1.0"?>
<opencv_storage>
<stage13>
  <maxWeakCount>10</maxWeakCount>
  <stageThreshold>-1.7566589117050171e+00</stageThreshold>
  <weakClassifiers>
    <_>
      <internalNodes>
        0 -1 5857 -9.4009684398770332e-03</internalNodes>
      <leafValues>
        1.6393441706895828e-02 -8.2502353191375732e-01</leafValues></_>
    <_>
      <internalNodes>
        0 -1 12577 -1.0592520236968994e-02</internalNodes>
      <leafValues>
        4.8739191889762878e-01 -4.6588197350502014e-01</leafValues></_>
    <_>
      <internalNodes>
        0 -1 122415 -5.5166485253721476e-04</internalNodes>
      <leafValues>
        -7.9631757736206055e-01 1.2428673356771469e-01</leafValues></_>
    <_>
      <internalNodes>
        0 -1 161813 7.1321204304695129e-03</internalNodes>
      <leafValues>
        -2.4189072847366333e-01 5.6313490867614746e-01</leafValues></_>
    <_>
      <internalNodes>
        0 -1 161940 -9.5798540860414505e-04</internalNodes>
      <leafValues>
        6.6013902425765991e-01 -1.6030357778072357e-01</leafValues></_>
    <_>
      <internalNodes>
        0 -1 151964 -3.1267761369235814e-04</internalNodes>
      <leafValues>
        -8.6370706558227539e-01 1.5940266847610474e-01</leafValues></_>
    <_>
      <internalNodes>
        0 -1 127471 -1.8512451788410544e-05</internalNodes>
      <leafValues>
        1.0873068124055862e-01 -8.2622998952865601e-01</leafValues></_>
    <_>
      <internalNodes>
        0 -1 11709 -7.5777351856231689e-02</internalNodes>
      <leafValues>
        6.5658092498779297e-01 -2.0738209784030914e-01</leafValues></_>
    <_>
      <internalNodes>
        0 -1 80582 -2.1628558635711670e-02</internalNodes>
      <leafValues>
        3.9932644367218018e-01 -4.0293228626251221e-01</leafValues></_>
    <_>
      <internalNodes>
        0 -1 134640 4.4056205078959465e-03</internalNodes>
      <leafValues>
        -3.7562716007232666e-01 3.5700234770774841e-01</leafValues></_></weakClassifiers></stage13>
</opencv_storage>
