<?xml version="1.0"?>
<opencv_storage>
<stage4>
  <maxWeakCount>6</maxWeakCount>
  <stageThreshold>-1.8875989913940430e+00</stageThreshold>
  <weakClassifiers>
    <_>
      <internalNodes>
        0 -1 499 6.2712512910366058e-02</internalNodes>
      <leafValues>
        -8.9408099651336670e-01 -9.3167699873447418e-02</leafValues></_>
    <_>
      <internalNodes>
        0 -1 158198 -2.6398897171020508e-02</internalNodes>
      <leafValues>
        3.7101793289184570e-01 -5.9141552448272705e-01</leafValues></_>
    <_>
      <internalNodes>
        0 -1 91044 2.1724402904510498e-02</internalNodes>
      <leafValues>
        -6.3669031858444214e-01 2.9563757777214050e-01</leafValues></_>
    <_>
      <internalNodes>
        0 -1 159927 3.1130237039178610e-04</internalNodes>
      <leafValues>
        1.9525323808193207e-01 -8.7547701597213745e-01</leafValues></_>
    <_>
      <internalNodes>
        0 -1 2175 -7.8054517507553101e-03</internalNodes>
      <leafValues>
        7.5732886791229248e-01 -2.7538117766380310e-01</leafValues></_>
    <_>
      <internalNodes>
        0 -1 122922 -5.2963476628065109e-04</internalNodes>
      <leafValues>
        -7.0490241050720215e-01 3.1471580266952515e-01</leafValues></_></weakClassifiers></stage4>
</opencv_storage>
