<?xml version="1.0"?>
<opencv_storage>
<stage1>
  <maxWeakCount>5</maxWeakCount>
  <stageThreshold>-2.0220074653625488e+00</stageThreshold>
  <weakClassifiers>
    <_>
      <internalNodes>
        0 -1 90435 -3.7042099982500076e-02</internalNodes>
      <leafValues>
        5.3061223030090332e-01 -9.0448343753814697e-01</leafValues></_>
    <_>
      <internalNodes>
        0 -1 152768 -1.3609445653855801e-02</internalNodes>
      <leafValues>
        6.4003098011016846e-01 -7.2184026241302490e-01</leafValues></_>
    <_>
      <internalNodes>
        0 -1 118415 -5.4876771755516529e-03</internalNodes>
      <leafValues>
        6.7428630590438843e-01 -5.8961820602416992e-01</leafValues></_>
    <_>
      <internalNodes>
        0 -1 61225 -5.2807340398430824e-03</internalNodes>
      <leafValues>
        6.6980832815170288e-01 -4.9753141403198242e-01</leafValues></_>
    <_>
      <internalNodes>
        0 -1 48791 1.7031501978635788e-02</internalNodes>
      <leafValues>
        -4.7587397694587708e-01 7.9496479034423828e-01</leafValues></_></weakClassifiers></stage1>
</opencv_storage>
