<?xml version="1.0"?>
<opencv_storage>
<stage12>
  <maxWeakCount>7</maxWeakCount>
  <stageThreshold>-1.6605980396270752e+00</stageThreshold>
  <weakClassifiers>
    <_>
      <internalNodes>
        0 -1 134444 -3.1967032700777054e-02</internalNodes>
      <leafValues>
        -3.6612021923065186e-01 -8.5972368717193604e-01</leafValues></_>
    <_>
      <internalNodes>
        0 -1 160008 -4.9022966995835304e-03</internalNodes>
      <leafValues>
        2.0070075988769531e-01 -5.5146569013595581e-01</leafValues></_>
    <_>
      <internalNodes>
        0 -1 87754 1.7817806452512741e-02</internalNodes>
      <leafValues>
        1.2590667605400085e-01 -8.4367001056671143e-01</leafValues></_>
    <_>
      <internalNodes>
        0 -1 160114 -5.4679485037922859e-03</internalNodes>
      <leafValues>
        4.7062268853187561e-01 -2.9761657118797302e-01</leafValues></_>
    <_>
      <internalNodes>
        0 -1 99964 -6.0583261074498296e-04</internalNodes>
      <leafValues>
        -6.4801341295242310e-01 2.1676780283451080e-01</leafValues></_>
    <_>
      <internalNodes>
        0 -1 56061 -3.2599512487649918e-02</internalNodes>
      <leafValues>
        4.1938760876655579e-01 -3.4338310360908508e-01</leafValues></_>
    <_>
      <internalNodes>
        0 -1 2149 7.0155989378690720e-03</internalNodes>
      <leafValues>
        1.5092705190181732e-01 -9.3124884366989136e-01</leafValues></_></weakClassifiers></stage12>
</opencv_storage>
