<?xml version="1.0"?>
<opencv_storage>
<cascade>
  <stageType>BOOST</stageType>
  <featureType>HAAR</featureType>
  <height>24</height>
  <width>24</width>
  <stageParams>
    <boostType>GAB</boostType>
    <minHitRate>9.9500000476837158e-01</minHitRate>
    <maxFalseAlarm>5.0000000000000000e-01</maxFalseAlarm>
    <weightTrimRate>9.4999998807907104e-01</weightTrimRate>
    <maxDepth>1</maxDepth>
    <maxWeakCount>100</maxWeakCount></stageParams>
  <featureParams>
    <maxCatCount>0</maxCatCount>
    <featSize>1</featSize>
    <mode>BASIC</mode></featureParams>
  <stageNum>12</stageNum>
  <stages>
    <!-- stage 0 -->
    <_>
      <maxWeakCount>4</maxWeakCount>
      <stageThreshold>-2.0376996994018555e+00</stageThreshold>
      <weakClassifiers>
        <_>
          <internalNodes>
            0 -1 22 -4.9623422324657440e-02</internalNodes>
          <leafValues>
            7.6470589637756348e-01 -9.7227722406387329e-01</leafValues></_>
        <_>
          <internalNodes>
            0 -1 15 3.3244185149669647e-02</internalNodes>
          <leafValues>
            -9.3143767118453979e-01 6.2431073188781738e-01</leafValues></_>
        <_>
          <internalNodes>
            0 -1 24 3.8661412894725800e-02</internalNodes>
          <leafValues>
            -8.1408756971359253e-01 9.3066507577896118e-01</leafValues></_>
        <_>
          <internalNodes>
            0 -1 31 -1.0112992487847805e-02</internalNodes>
          <leafValues>
            6.8010276556015015e-01 -9.7212845087051392e-01</leafValues></_></weakClassifiers></_>
    <!-- stage 1 -->
    <_>
      <maxWeakCount>3</maxWeakCount>
      <stageThreshold>-1.4768334627151489e+00</stageThreshold>
      <weakClassifiers>
        <_>
          <internalNodes>
            0 -1 5 -1.0417526960372925e-01</internalNodes>
          <leafValues>
            6.0000002384185791e-01 -9.6055227518081665e-01</leafValues></_>
        <_>
          <internalNodes>
            0 -1 8 4.4313516467809677e-02</internalNodes>
          <leafValues>
            -8.9398741722106934e-01 3.2245790958404541e-01</leafValues></_>
        <_>
          <internalNodes>
            0 -1 36 2.4080496281385422e-02</internalNodes>
          <leafValues>
            -8.3873909711837769e-01 5.1113218069076538e-01</leafValues></_></weakClassifiers></_>
    <!-- stage 2 -->
    <_>
      <maxWeakCount>3</maxWeakCount>
      <stageThreshold>-1.6176869869232178e+00</stageThreshold>
      <weakClassifiers>
        <_>
          <internalNodes>
            0 -1 41 -6.6293090581893921e-02</internalNodes>
          <leafValues>
            2.0000000298023224e-01 -9.4871795177459717e-01</leafValues></_>
        <_>
          <internalNodes>
            0 -1 21 1.8012270331382751e-02</internalNodes>
          <leafValues>
            -8.9711081981658936e-01 8.3419442176818848e-02</leafValues></_>
        <_>
          <internalNodes>
            0 -1 26 -5.6805510073900223e-02</internalNodes>
          <leafValues>
            5.6431603431701660e-01 -7.5238847732543945e-01</leafValues></_></weakClassifiers></_>
    <!-- stage 3 -->
    <_>
      <maxWeakCount>4</maxWeakCount>
      <stageThreshold>-2.1797301769256592e+00</stageThreshold>
      <weakClassifiers>
        <_>
          <internalNodes>
            0 -1 11 -5.5148489773273468e-02</internalNodes>
          <leafValues>
            5.5555555969476700e-02 -9.5039683580398560e-01</leafValues></_>
        <_>
          <internalNodes>
            0 -1 32 -1.1110267043113708e-01</internalNodes>
          <leafValues>
            1.4022761583328247e-01 -8.7187337875366211e-01</leafValues></_>
        <_>
          <internalNodes>
            0 -1 27 1.3105599209666252e-02</internalNodes>
          <leafValues>
            -7.9077106714248657e-01 3.9814278483390808e-01</leafValues></_>
        <_>
          <internalNodes>
            0 -1 4 -2.3743268102407455e-02</internalNodes>
          <leafValues>
            4.3517157435417175e-01 -7.5560277700424194e-01</leafValues></_></weakClassifiers></_>
    <!-- stage 4 -->
    <_>
      <maxWeakCount>4</maxWeakCount>
      <stageThreshold>-2.1137709617614746e+00</stageThreshold>
      <weakClassifiers>
        <_>
          <internalNodes>
            0 -1 44 -4.7200061380863190e-02</internalNodes>
          <leafValues>
            -1.2500000000000000e-01 -9.5381528139114380e-01</leafValues></_>
        <_>
          <internalNodes>
            0 -1 29 -1.1674381047487259e-01</internalNodes>
          <leafValues>
            1.0589613765478134e-01 -8.7264078855514526e-01</leafValues></_>
        <_>
          <internalNodes>
            0 -1 25 -1.1590193957090378e-02</internalNodes>
          <leafValues>
            5.2621406316757202e-01 -6.0772311687469482e-01</leafValues></_>
        <_>
          <internalNodes>
            0 -1 37 -1.6830254346132278e-02</internalNodes>
          <leafValues>
            5.2560597658157349e-01 -6.5812879800796509e-01</leafValues></_></weakClassifiers></_>
    <!-- stage 5 -->
    <_>
      <maxWeakCount>4</maxWeakCount>
      <stageThreshold>-1.6724492311477661e+00</stageThreshold>
      <weakClassifiers>
        <_>
          <internalNodes>
            0 -1 44 -4.6839613467454910e-02</internalNodes>
          <leafValues>
            -1.4285714924335480e-01 -9.5376884937286377e-01</leafValues></_>
        <_>
          <internalNodes>
            0 -1 6 -1.4195549488067627e-01</internalNodes>
          <leafValues>
            5.8158367872238159e-01 -7.5421065092086792e-01</leafValues></_>
        <_>
          <internalNodes>
            0 -1 14 1.1995148845016956e-02</internalNodes>
          <leafValues>
            -9.7201019525527954e-01 1.5785968303680420e-01</leafValues></_>
        <_>
          <internalNodes>
            0 -1 30 -2.2924053482711315e-03</internalNodes>
          <leafValues>
            2.1045866608619690e-01 -9.3324112892150879e-01</leafValues></_></weakClassifiers></_>
    <!-- stage 6 -->
    <_>
      <maxWeakCount>5</maxWeakCount>
      <stageThreshold>-1.9145168066024780e+00</stageThreshold>
      <weakClassifiers>
        <_>
          <internalNodes>
            0 -1 17 -3.2715916633605957e-02</internalNodes>
          <leafValues>
            2.0000000298023224e-01 -9.3750000000000000e-01</leafValues></_>
        <_>
          <internalNodes>
            0 -1 12 -3.8004003465175629e-02</internalNodes>
          <leafValues>
            1.8034711480140686e-01 -7.8482317924499512e-01</leafValues></_>
        <_>
          <internalNodes>
            0 -1 34 1.4872319996356964e-02</internalNodes>
          <leafValues>
            -7.0178735256195068e-01 3.2655456662178040e-01</leafValues></_>
        <_>
          <internalNodes>
            0 -1 3 -2.4799027596600354e-04</internalNodes>
          <leafValues>
            -8.8693654537200928e-01 2.6138889789581299e-01</leafValues></_>
        <_>
          <internalNodes>
            0 -1 46 -1.3002043124288321e-04</internalNodes>
          <leafValues>
            -1. 2.4820481240749359e-01</leafValues></_></weakClassifiers></_>
    <!-- stage 7 -->
    <_>
      <maxWeakCount>4</maxWeakCount>
      <stageThreshold>-2.3539144992828369e+00</stageThreshold>
      <weakClassifiers>
        <_>
          <internalNodes>
            0 -1 23 -5.6119572371244431e-02</internalNodes>
          <leafValues>
            -5.2212387323379517e-01 -9.6348011493682861e-01</leafValues></_>
        <_>
          <internalNodes>
            0 -1 18 1.0784353315830231e-01</internalNodes>
          <leafValues>
            -7.6732981204986572e-01 2.7797648310661316e-01</leafValues></_>
        <_>
          <internalNodes>
            0 -1 2 -8.9321970939636230e-02</internalNodes>
          <leafValues>
            5.0914108753204346e-01 -5.4364711046218872e-01</leafValues></_>
        <_>
          <internalNodes>
            0 -1 33 -2.4649638682603836e-02</internalNodes>
          <leafValues>
            5.7529634237289429e-01 -5.2081376314163208e-01</leafValues></_></weakClassifiers></_>
    <!-- stage 8 -->
    <_>
      <maxWeakCount>5</maxWeakCount>
      <stageThreshold>-2.5486094951629639e+00</stageThreshold>
      <weakClassifiers>
        <_>
          <internalNodes>
            0 -1 35 -5.0342105329036713e-02</internalNodes>
          <leafValues>
            3.3333334326744080e-01 -9.3023258447647095e-01</leafValues></_>
        <_>
          <internalNodes>
            0 -1 1 -1.5554914250969887e-02</internalNodes>
          <leafValues>
            2.6234760880470276e-01 -7.7544164657592773e-01</leafValues></_>
        <_>
          <internalNodes>
            0 -1 45 3.8445979356765747e-02</internalNodes>
          <leafValues>
            -5.9113907814025879e-01 4.3237507343292236e-01</leafValues></_>
        <_>
          <internalNodes>
            0 -1 39 -2.6833109586732462e-05</internalNodes>
          <leafValues>
            3.7951454520225525e-01 -7.8515881299972534e-01</leafValues></_>
        <_>
          <internalNodes>
            0 -1 7 -3.2435081899166107e-02</internalNodes>
          <leafValues>
            3.8983488082885742e-01 -6.3131070137023926e-01</leafValues></_></weakClassifiers></_>
    <!-- stage 9 -->
    <_>
      <maxWeakCount>5</maxWeakCount>
      <stageThreshold>-1.9647089242935181e+00</stageThreshold>
      <weakClassifiers>
        <_>
          <internalNodes>
            0 -1 28 -2.3197941482067108e-02</internalNodes>
          <leafValues>
            -3.4615385532379150e-01 -9.4556450843811035e-01</leafValues></_>
        <_>
          <internalNodes>
            0 -1 42 -3.6144077777862549e-02</internalNodes>
          <leafValues>
            1.5414087474346161e-01 -7.6089513301849365e-01</leafValues></_>
        <_>
          <internalNodes>
            0 -1 46 2.5430141249671578e-04</internalNodes>
          <leafValues>
            2.3158076405525208e-01 -7.1528238058090210e-01</leafValues></_>
        <_>
          <internalNodes>
            0 -1 20 6.1839991249144077e-03</internalNodes>
          <leafValues>
            2.1606346964836121e-01 -8.6059319972991943e-01</leafValues></_>
        <_>
          <internalNodes>
            0 -1 19 -4.8616045387461782e-04</internalNodes>
          <leafValues>
            4.0259027481079102e-01 -6.2553745508193970e-01</leafValues></_></weakClassifiers></_>
    <!-- stage 10 -->
    <_>
      <maxWeakCount>5</maxWeakCount>
      <stageThreshold>-2.1197605133056641e+00</stageThreshold>
      <weakClassifiers>
        <_>
          <internalNodes>
            0 -1 38 -7.1125194430351257e-02</internalNodes>
          <leafValues>
            1. -9.2678225040435791e-01</leafValues></_>
        <_>
          <internalNodes>
            0 -1 10 -8.3282932639122009e-02</internalNodes>
          <leafValues>
            1.5847019851207733e-01 -7.9578363895416260e-01</leafValues></_>
        <_>
          <internalNodes>
            0 -1 40 -5.0238525727763772e-04</internalNodes>
          <leafValues>
            2.2210045158863068e-01 -7.6469010114669800e-01</leafValues></_>
        <_>
          <internalNodes>
            0 -1 0 1.9320095889270306e-03</internalNodes>
          <leafValues>
            2.2203946113586426e-01 -8.8663697242736816e-01</leafValues></_>
        <_>
          <internalNodes>
            0 -1 47 -4.0146034734789282e-05</internalNodes>
          <leafValues>
            -8.4133440256118774e-01 2.9089888930320740e-01</leafValues></_></weakClassifiers></_>
    <!-- stage 11 -->
    <_>
      <maxWeakCount>4</maxWeakCount>
      <stageThreshold>-1.9914916753768921e+00</stageThreshold>
      <weakClassifiers>
        <_>
          <internalNodes>
            0 -1 9 -5.5303588509559631e-02</internalNodes>
          <leafValues>
            -3.0000001192092896e-01 -9.4023907184600830e-01</leafValues></_>
        <_>
          <internalNodes>
            0 -1 16 -9.5653265714645386e-02</internalNodes>
          <leafValues>
            -1.7146189510822296e-01 -8.3632332086563110e-01</leafValues></_>
        <_>
          <internalNodes>
            0 -1 43 1.6200641402974725e-04</internalNodes>
          <leafValues>
            -7.0093297958374023e-01 1.8210807442665100e-01</leafValues></_>
        <_>
          <internalNodes>
            0 -1 13 1.3430783525109291e-02</internalNodes>
          <leafValues>
            -3.9703735709190369e-01 6.1356335878372192e-01</leafValues></_></weakClassifiers></_></stages>
  <features>
    <_>
      <rects>
        <_>
          0 0 1 9 -1.</_>
        <_>
          0 3 1 3 3.</_></rects>
      <tilted>0</tilted></_>
    <_>
      <rects>
        <_>
          0 0 14 2 -1.</_>
        <_>
          0 0 7 1 2.</_>
        <_>
          7 1 7 1 2.</_></rects>
      <tilted>0</tilted></_>
    <_>
      <rects>
        <_>
          0 1 6 21 -1.</_>
        <_>
          3 1 3 21 2.</_></rects>
      <tilted>0</tilted></_>
    <_>
      <rects>
        <_>
          0 2 1 4 -1.</_>
        <_>
          0 4 1 2 2.</_></rects>
      <tilted>0</tilted></_>
    <_>
      <rects>
        <_>
          0 2 8 8 -1.</_>
        <_>
          4 2 4 8 2.</_></rects>
      <tilted>0</tilted></_>
    <_>
      <rects>
        <_>
          0 5 12 9 -1.</_>
        <_>
          4 5 4 9 3.</_></rects>
      <tilted>0</tilted></_>
    <_>
      <rects>
        <_>
          0 15 24 4 -1.</_>
        <_>
          8 15 8 4 3.</_></rects>
      <tilted>0</tilted></_>
    <_>
      <rects>
        <_>
          1 0 20 6 -1.</_>
        <_>
          1 2 20 2 3.</_></rects>
      <tilted>0</tilted></_>
    <_>
      <rects>
        <_>
          1 1 12 6 -1.</_>
        <_>
          1 1 6 3 2.</_>
        <_>
          7 4 6 3 2.</_></rects>
      <tilted>0</tilted></_>
    <_>
      <rects>
        <_>
          1 1 21 1 -1.</_>
        <_>
          8 1 7 1 3.</_></rects>
      <tilted>0</tilted></_>
    <_>
      <rects>
        <_>
          1 1 21 2 -1.</_>
        <_>
          8 1 7 2 3.</_></rects>
      <tilted>0</tilted></_>
    <_>
      <rects>
        <_>
          1 4 6 14 -1.</_>
        <_>
          3 4 2 14 3.</_></rects>
      <tilted>0</tilted></_>
    <_>
      <rects>
        <_>
          1 6 6 9 -1.</_>
        <_>
          3 6 2 9 3.</_></rects>
      <tilted>0</tilted></_>
    <_>
      <rects>
        <_>
          1 9 16 2 -1.</_>
        <_>
          1 10 16 1 2.</_></rects>
      <tilted>0</tilted></_>
    <_>
      <rects>
        <_>
          2 0 10 8 -1.</_>
        <_>
          2 0 5 4 2.</_>
        <_>
          7 4 5 4 2.</_></rects>
      <tilted>0</tilted></_>
    <_>
      <rects>
        <_>
          2 1 12 6 -1.</_>
        <_>
          2 1 6 3 2.</_>
        <_>
          8 4 6 3 2.</_></rects>
      <tilted>0</tilted></_>
    <_>
      <rects>
        <_>
          2 1 21 4 -1.</_>
        <_>
          9 1 7 4 3.</_></rects>
      <tilted>0</tilted></_>
    <_>
      <rects>
        <_>
          2 3 4 5 -1.</_>
        <_>
          4 3 2 5 2.</_></rects>
      <tilted>0</tilted></_>
    <_>
      <rects>
        <_>
          3 8 15 12 -1.</_>
        <_>
          3 12 15 4 3.</_></rects>
      <tilted>0</tilted></_>
    <_>
      <rects>
        <_>
          4 6 10 2 -1.</_>
        <_>
          4 6 5 1 2.</_>
        <_>
          9 7 5 1 2.</_></rects>
      <tilted>0</tilted></_>
    <_>
      <rects>
        <_>
          4 9 16 4 -1.</_>
        <_>
          4 9 8 2 2.</_>
        <_>
          12 11 8 2 2.</_></rects>
      <tilted>0</tilted></_>
    <_>
      <rects>
        <_>
          5 9 15 6 -1.</_>
        <_>
          5 11 15 2 3.</_></rects>
      <tilted>0</tilted></_>
    <_>
      <rects>
        <_>
          6 0 10 6 -1.</_>
        <_>
          6 2 10 2 3.</_></rects>
      <tilted>0</tilted></_>
    <_>
      <rects>
        <_>
          6 0 11 4 -1.</_>
        <_>
          6 2 11 2 2.</_></rects>
      <tilted>0</tilted></_>
    <_>
      <rects>
        <_>
          6 4 11 6 -1.</_>
        <_>
          6 6 11 2 3.</_></rects>
      <tilted>0</tilted></_>
    <_>
      <rects>
        <_>
          6 8 12 3 -1.</_>
        <_>
          6 9 12 1 3.</_></rects>
      <tilted>0</tilted></_>
    <_>
      <rects>
        <_>
          7 0 9 9 -1.</_>
        <_>
          7 3 9 3 3.</_></rects>
      <tilted>0</tilted></_>
    <_>
      <rects>
        <_>
          7 8 9 3 -1.</_>
        <_>
          10 8 3 3 3.</_></rects>
      <tilted>0</tilted></_>
    <_>
      <rects>
        <_>
          8 0 7 2 -1.</_>
        <_>
          8 1 7 1 2.</_></rects>
      <tilted>0</tilted></_>
    <_>
      <rects>
        <_>
          11 2 12 17 -1.</_>
        <_>
          15 2 4 17 3.</_></rects>
      <tilted>0</tilted></_>
    <_>
      <rects>
        <_>
          11 7 4 6 -1.</_>
        <_>
          13 7 2 6 2.</_></rects>
      <tilted>0</tilted></_>
    <_>
      <rects>
        <_>
          12 1 8 6 -1.</_>
        <_>
          12 1 4 3 2.</_>
        <_>
          16 4 4 3 2.</_></rects>
      <tilted>0</tilted></_>
    <_>
      <rects>
        <_>
          12 4 12 14 -1.</_>
        <_>
          16 4 4 14 3.</_></rects>
      <tilted>0</tilted></_>
    <_>
      <rects>
        <_>
          12 16 12 8 -1.</_>
        <_>
          12 16 6 4 2.</_>
        <_>
          18 20 6 4 2.</_></rects>
      <tilted>0</tilted></_>
    <_>
      <rects>
        <_>
          13 0 10 4 -1.</_>
        <_>
          13 0 5 2 2.</_>
        <_>
          18 2 5 2 2.</_></rects>
      <tilted>0</tilted></_>
    <_>
      <rects>
        <_>
          14 2 6 6 -1.</_>
        <_>
          14 2 3 3 2.</_>
        <_>
          17 5 3 3 2.</_></rects>
      <tilted>0</tilted></_>
    <_>
      <rects>
        <_>
          14 2 8 3 -1.</_>
        <_>
          18 2 4 3 2.</_></rects>
      <tilted>0</tilted></_>
    <_>
      <rects>
        <_>
          15 0 2 9 -1.</_>
        <_>
          15 3 2 3 3.</_></rects>
      <tilted>0</tilted></_>
    <_>
      <rects>
        <_>
          15 9 6 9 -1.</_>
        <_>
          18 9 3 9 2.</_></rects>
      <tilted>0</tilted></_>
    <_>
      <rects>
        <_>
          15 13 1 2 -1.</_>
        <_>
          15 14 1 1 2.</_></rects>
      <tilted>0</tilted></_>
    <_>
      <rects>
        <_>
          16 4 2 4 -1.</_>
        <_>
          17 4 1 4 2.</_></rects>
      <tilted>0</tilted></_>
    <_>
      <rects>
        <_>
          16 4 6 11 -1.</_>
        <_>
          18 4 2 11 3.</_></rects>
      <tilted>0</tilted></_>
    <_>
      <rects>
        <_>
          16 5 6 5 -1.</_>
        <_>
          18 5 2 5 3.</_></rects>
      <tilted>0</tilted></_>
    <_>
      <rects>
        <_>
          16 8 3 5 -1.</_>
        <_>
          17 8 1 5 3.</_></rects>
      <tilted>0</tilted></_>
    <_>
      <rects>
        <_>
          17 6 6 8 -1.</_>
        <_>
          19 6 2 8 3.</_></rects>
      <tilted>0</tilted></_>
    <_>
      <rects>
        <_>
          18 7 6 7 -1.</_>
        <_>
          21 7 3 7 2.</_></rects>
      <tilted>0</tilted></_>
    <_>
      <rects>
        <_>
          20 0 3 2 -1.</_>
        <_>
          21 0 1 2 3.</_></rects>
      <tilted>0</tilted></_>
    <_>
      <rects>
        <_>
          21 0 3 2 -1.</_>
        <_>
          22 0 1 2 3.</_></rects>
      <tilted>0</tilted></_></features></cascade>
</opencv_storage>
