<?xml version="1.0"?>
<opencv_storage>
<cascade>
  <stageType>BOOST</stageType>
  <featureType>HAAR</featureType>
  <height>24</height>
  <width>24</width>
  <stageParams>
    <boostType>GAB</boostType>
    <minHitRate>9.9500000476837158e-01</minHitRate>
    <maxFalseAlarm>5.0000000000000000e-01</maxFalseAlarm>
    <weightTrimRate>9.4999998807907104e-01</weightTrimRate>
    <maxDepth>1</maxDepth>
    <maxWeakCount>100</maxWeakCount></stageParams>
  <featureParams>
    <maxCatCount>0</maxCatCount>
    <featSize>1</featSize>
    <mode>BASIC</mode></featureParams>
  <stageNum>18</stageNum>
  <stages>
    <!-- stage 0 -->
    <_>
      <maxWeakCount>4</maxWeakCount>
      <stageThreshold>-1.8452311754226685e+00</stageThreshold>
      <weakClassifiers>
        <_>
          <internalNodes>
            0 -1 84 -1.4091658405959606e-02</internalNodes>
          <leafValues>
            6.3636362552642822e-01 -9.1609758138656616e-01</leafValues></_>
        <_>
          <internalNodes>
            0 -1 116 -4.6131080016493797e-03</internalNodes>
          <leafValues>
            8.1128525733947754e-01 -7.2779732942581177e-01</leafValues></_>
        <_>
          <internalNodes>
            0 -1 47 -1.2117559090256691e-02</internalNodes>
          <leafValues>
            7.6025730371475220e-01 -6.0506707429885864e-01</leafValues></_>
        <_>
          <internalNodes>
            0 -1 51 2.8528918046504259e-03</internalNodes>
          <leafValues>
            4.0373072028160095e-01 -9.7728365659713745e-01</leafValues></_></weakClassifiers></_>
    <!-- stage 1 -->
    <_>
      <maxWeakCount>5</maxWeakCount>
      <stageThreshold>-2.0220074653625488e+00</stageThreshold>
      <weakClassifiers>
        <_>
          <internalNodes>
            0 -1 57 -3.7042099982500076e-02</internalNodes>
          <leafValues>
            5.3061223030090332e-01 -9.0448343753814697e-01</leafValues></_>
        <_>
          <internalNodes>
            0 -1 103 -1.3609445653855801e-02</internalNodes>
          <leafValues>
            6.4003098011016846e-01 -7.2184026241302490e-01</leafValues></_>
        <_>
          <internalNodes>
            0 -1 78 -5.4876771755516529e-03</internalNodes>
          <leafValues>
            6.7428630590438843e-01 -5.8961820602416992e-01</leafValues></_>
        <_>
          <internalNodes>
            0 -1 44 -5.2807340398430824e-03</internalNodes>
          <leafValues>
            6.6980832815170288e-01 -4.9753141403198242e-01</leafValues></_>
        <_>
          <internalNodes>
            0 -1 36 1.7031501978635788e-02</internalNodes>
          <leafValues>
            -4.7587397694587708e-01 7.9496479034423828e-01</leafValues></_></weakClassifiers></_>
    <!-- stage 2 -->
    <_>
      <maxWeakCount>7</maxWeakCount>
      <stageThreshold>-1.5835610628128052e+00</stageThreshold>
      <weakClassifiers>
        <_>
          <internalNodes>
            0 -1 37 -6.2172681093215942e-02</internalNodes>
          <leafValues>
            5.3488373756408691e-01 -8.8824665546417236e-01</leafValues></_>
        <_>
          <internalNodes>
            0 -1 27 2.1442794799804688e-01</internalNodes>
          <leafValues>
            -7.4311625957489014e-01 3.8938355445861816e-01</leafValues></_>
        <_>
          <internalNodes>
            0 -1 59 -2.5209708139300346e-02</internalNodes>
          <leafValues>
            7.2575485706329346e-01 -4.9738258123397827e-01</leafValues></_>
        <_>
          <internalNodes>
            0 -1 89 -5.4683573544025421e-03</internalNodes>
          <leafValues>
            3.2930538058280945e-01 -7.4736267328262329e-01</leafValues></_>
        <_>
          <internalNodes>
            0 -1 20 -7.0562940090894699e-03</internalNodes>
          <leafValues>
            6.9342696666717529e-01 -3.4128955006599426e-01</leafValues></_>
        <_>
          <internalNodes>
            0 -1 62 4.0843591094017029e-02</internalNodes>
          <leafValues>
            -2.0323932170867920e-01 9.0265798568725586e-01</leafValues></_>
        <_>
          <internalNodes>
            0 -1 68 -1.7948977649211884e-02</internalNodes>
          <leafValues>
            7.6040786504745483e-01 -2.6039931178092957e-01</leafValues></_></weakClassifiers></_>
    <!-- stage 3 -->
    <_>
      <maxWeakCount>6</maxWeakCount>
      <stageThreshold>-1.8023904561996460e+00</stageThreshold>
      <weakClassifiers>
        <_>
          <internalNodes>
            0 -1 23 2.8310015797615051e-02</internalNodes>
          <leafValues>
            -9.0126049518585205e-01 -1.0465116053819656e-01</leafValues></_>
        <_>
          <internalNodes>
            0 -1 116 -5.9469072148203850e-03</internalNodes>
          <leafValues>
            3.8741281628608704e-01 -6.2657392024993896e-01</leafValues></_>
        <_>
          <internalNodes>
            0 -1 25 1.3374203443527222e-01</internalNodes>
          <leafValues>
            -4.0201383829116821e-01 5.0565809011459351e-01</leafValues></_>
        <_>
          <internalNodes>
            0 -1 104 -2.9872741550207138e-02</internalNodes>
          <leafValues>
            6.7607736587524414e-01 -2.8434824943542480e-01</leafValues></_>
        <_>
          <internalNodes>
            0 -1 21 -3.8200718699954450e-04</internalNodes>
          <leafValues>
            3.2802981138229370e-01 -6.9649273157119751e-01</leafValues></_>
        <_>
          <internalNodes>
            0 -1 86 -5.3240999113768339e-04</internalNodes>
          <leafValues>
            -8.2389569282531738e-01 2.4153624475002289e-01</leafValues></_></weakClassifiers></_>
    <!-- stage 4 -->
    <_>
      <maxWeakCount>6</maxWeakCount>
      <stageThreshold>-1.8875989913940430e+00</stageThreshold>
      <weakClassifiers>
        <_>
          <internalNodes>
            0 -1 2 6.2712512910366058e-02</internalNodes>
          <leafValues>
            -8.9408099651336670e-01 -9.3167699873447418e-02</leafValues></_>
        <_>
          <internalNodes>
            0 -1 110 -2.6398897171020508e-02</internalNodes>
          <leafValues>
            3.7101793289184570e-01 -5.9141552448272705e-01</leafValues></_>
        <_>
          <internalNodes>
            0 -1 60 2.1724402904510498e-02</internalNodes>
          <leafValues>
            -6.3669031858444214e-01 2.9563757777214050e-01</leafValues></_>
        <_>
          <internalNodes>
            0 -1 111 3.1130237039178610e-04</internalNodes>
          <leafValues>
            1.9525323808193207e-01 -8.7547701597213745e-01</leafValues></_>
        <_>
          <internalNodes>
            0 -1 7 -7.8054517507553101e-03</internalNodes>
          <leafValues>
            7.5732886791229248e-01 -2.7538117766380310e-01</leafValues></_>
        <_>
          <internalNodes>
            0 -1 81 -5.2963476628065109e-04</internalNodes>
          <leafValues>
            -7.0490241050720215e-01 3.1471580266952515e-01</leafValues></_></weakClassifiers></_>
    <!-- stage 5 -->
    <_>
      <maxWeakCount>7</maxWeakCount>
      <stageThreshold>-1.8108272552490234e+00</stageThreshold>
      <weakClassifiers>
        <_>
          <internalNodes>
            0 -1 32 1.0943347215652466e-01</internalNodes>
          <leafValues>
            -8.3255815505981445e-01 3.8775509595870972e-01</leafValues></_>
        <_>
          <internalNodes>
            0 -1 23 2.8185153380036354e-02</internalNodes>
          <leafValues>
            -6.3627672195434570e-01 3.7038141489028931e-01</leafValues></_>
        <_>
          <internalNodes>
            0 -1 79 1.2332673650234938e-03</internalNodes>
          <leafValues>
            1.7108833789825439e-01 -8.5943639278411865e-01</leafValues></_>
        <_>
          <internalNodes>
            0 -1 97 9.6575524366926402e-05</internalNodes>
          <leafValues>
            1.5271505713462830e-01 -8.2242733240127563e-01</leafValues></_>
        <_>
          <internalNodes>
            0 -1 118 1.2229195795953274e-02</internalNodes>
          <leafValues>
            -2.9822868108749390e-01 6.2034130096435547e-01</leafValues></_>
        <_>
          <internalNodes>
            0 -1 73 -1.2683595996350050e-03</internalNodes>
          <leafValues>
            -7.8007572889328003e-01 2.8542575240135193e-01</leafValues></_>
        <_>
          <internalNodes>
            0 -1 38 -6.5283761359751225e-03</internalNodes>
          <leafValues>
            3.7753191590309143e-01 -4.6350902318954468e-01</leafValues></_></weakClassifiers></_>
    <!-- stage 6 -->
    <_>
      <maxWeakCount>7</maxWeakCount>
      <stageThreshold>-1.9687248468399048e+00</stageThreshold>
      <weakClassifiers>
        <_>
          <internalNodes>
            0 -1 9 -3.1743757426738739e-02</internalNodes>
          <leafValues>
            -1.3114753365516663e-01 -8.5828346014022827e-01</leafValues></_>
        <_>
          <internalNodes>
            0 -1 95 -9.3017946928739548e-03</internalNodes>
          <leafValues>
            4.0153214335441589e-01 -5.6368434429168701e-01</leafValues></_>
        <_>
          <internalNodes>
            0 -1 4 8.6620412766933441e-03</internalNodes>
          <leafValues>
            -5.8632713556289673e-01 3.2927066087722778e-01</leafValues></_>
        <_>
          <internalNodes>
            0 -1 46 -1.7213344108313322e-03</internalNodes>
          <leafValues>
            4.5532473921775818e-01 -3.7713080644607544e-01</leafValues></_>
        <_>
          <internalNodes>
            0 -1 54 3.4505538642406464e-02</internalNodes>
          <leafValues>
            -3.9399254322052002e-01 4.1098541021347046e-01</leafValues></_>
        <_>
          <internalNodes>
            0 -1 69 -2.4466394097544253e-04</internalNodes>
          <leafValues>
            2.6035201549530029e-01 -7.9447013139724731e-01</leafValues></_>
        <_>
          <internalNodes>
            0 -1 106 2.1593833342194557e-02</internalNodes>
          <leafValues>
            -2.8211408853530884e-01 7.1077954769134521e-01</leafValues></_></weakClassifiers></_>
    <!-- stage 7 -->
    <_>
      <maxWeakCount>5</maxWeakCount>
      <stageThreshold>-1.5632669925689697e+00</stageThreshold>
      <weakClassifiers>
        <_>
          <internalNodes>
            0 -1 34 3.5006374120712280e-01</internalNodes>
          <leafValues>
            -8.6354774236679077e-01 1.0204081982374191e-01</leafValues></_>
        <_>
          <internalNodes>
            0 -1 33 -2.2393826395273209e-02</internalNodes>
          <leafValues>
            6.3401430845260620e-01 -5.6555551290512085e-01</leafValues></_>
        <_>
          <internalNodes>
            0 -1 24 1.8614101409912109e-01</internalNodes>
          <leafValues>
            -4.2232370376586914e-01 4.5874127745628357e-01</leafValues></_>
        <_>
          <internalNodes>
            0 -1 94 -7.4183935066685081e-04</internalNodes>
          <leafValues>
            -7.9382485151290894e-01 2.4221792817115784e-01</leafValues></_>
        <_>
          <internalNodes>
            0 -1 93 -7.6787138823419809e-04</internalNodes>
          <leafValues>
            -8.3512294292449951e-01 2.4575252830982208e-01</leafValues></_></weakClassifiers></_>
    <!-- stage 8 -->
    <_>
      <maxWeakCount>6</maxWeakCount>
      <stageThreshold>-1.5435425043106079e+00</stageThreshold>
      <weakClassifiers>
        <_>
          <internalNodes>
            0 -1 19 7.7244356274604797e-02</internalNodes>
          <leafValues>
            -8.4780490398406982e-01 -7.0707067847251892e-02</leafValues></_>
        <_>
          <internalNodes>
            0 -1 53 -1.7937771975994110e-02</internalNodes>
          <leafValues>
            3.5406541824340820e-01 -5.5021113157272339e-01</leafValues></_>
        <_>
          <internalNodes>
            0 -1 42 -6.9750607945024967e-03</internalNodes>
          <leafValues>
            -8.2633972167968750e-01 1.9258496165275574e-01</leafValues></_>
        <_>
          <internalNodes>
            0 -1 108 -9.0335179120302200e-03</internalNodes>
          <leafValues>
            3.4575098752975464e-01 -5.3204435110092163e-01</leafValues></_>
        <_>
          <internalNodes>
            0 -1 105 -1.6245292499661446e-05</internalNodes>
          <leafValues>
            2.7579367160797119e-01 -7.6526761054992676e-01</leafValues></_>
        <_>
          <internalNodes>
            0 -1 92 2.5237118825316429e-03</internalNodes>
          <leafValues>
            1.8155951797962189e-01 -8.2287138700485229e-01</leafValues></_></weakClassifiers></_>
    <!-- stage 9 -->
    <_>
      <maxWeakCount>6</maxWeakCount>
      <stageThreshold>-1.5064384937286377e+00</stageThreshold>
      <weakClassifiers>
        <_>
          <internalNodes>
            0 -1 28 5.3405985236167908e-02</internalNodes>
          <leafValues>
            -8.5699898004531860e-01 -1.9083969295024872e-01</leafValues></_>
        <_>
          <internalNodes>
            0 -1 96 -3.5415649414062500e-02</internalNodes>
          <leafValues>
            2.5183892250061035e-01 -5.7549768686294556e-01</leafValues></_>
        <_>
          <internalNodes>
            0 -1 77 -1.5798849053680897e-03</internalNodes>
          <leafValues>
            -9.8020285367965698e-01 1.2565413117408752e-01</leafValues></_>
        <_>
          <internalNodes>
            0 -1 50 1.4928160235285759e-02</internalNodes>
          <leafValues>
            -5.5278140306472778e-01 2.6283448934555054e-01</leafValues></_>
        <_>
          <internalNodes>
            0 -1 35 -1.7515053972601891e-02</internalNodes>
          <leafValues>
            4.1771906614303589e-01 -3.7983468174934387e-01</leafValues></_>
        <_>
          <internalNodes>
            0 -1 64 7.8766047954559326e-04</internalNodes>
          <leafValues>
            1.7662449181079865e-01 -8.8014954328536987e-01</leafValues></_></weakClassifiers></_>
    <!-- stage 10 -->
    <_>
      <maxWeakCount>9</maxWeakCount>
      <stageThreshold>-1.9015606641769409e+00</stageThreshold>
      <weakClassifiers>
        <_>
          <internalNodes>
            0 -1 8 -3.3514320850372314e-02</internalNodes>
          <leafValues>
            2.9723006504612814e-18 -8.4069097042083740e-01</leafValues></_>
        <_>
          <internalNodes>
            0 -1 29 3.8390140980482101e-02</internalNodes>
          <leafValues>
            -5.5559235811233521e-01 4.3425086140632629e-01</leafValues></_>
        <_>
          <internalNodes>
            0 -1 22 1.3434328138828278e-02</internalNodes>
          <leafValues>
            -3.0686026811599731e-01 5.6928479671478271e-01</leafValues></_>
        <_>
          <internalNodes>
            0 -1 43 6.8473769351840019e-04</internalNodes>
          <leafValues>
            2.2571402788162231e-01 -7.6167076826095581e-01</leafValues></_>
        <_>
          <internalNodes>
            0 -1 61 5.9030284173786640e-03</internalNodes>
          <leafValues>
            -2.3997792601585388e-01 5.3810685873031616e-01</leafValues></_>
        <_>
          <internalNodes>
            0 -1 72 -7.3067913763225079e-04</internalNodes>
          <leafValues>
            -7.2856622934341431e-01 1.9340141117572784e-01</leafValues></_>
        <_>
          <internalNodes>
            0 -1 49 -3.4283532295376062e-03</internalNodes>
          <leafValues>
            4.0526419878005981e-01 -3.2011625170707703e-01</leafValues></_>
        <_>
          <internalNodes>
            0 -1 85 -3.2447616104036570e-04</internalNodes>
          <leafValues>
            -7.4226635694503784e-01 1.8564198911190033e-01</leafValues></_>
        <_>
          <internalNodes>
            0 -1 16 2.0416663028299809e-03</internalNodes>
          <leafValues>
            -2.4308040738105774e-01 5.4430294036865234e-01</leafValues></_></weakClassifiers></_>
    <!-- stage 11 -->
    <_>
      <maxWeakCount>7</maxWeakCount>
      <stageThreshold>-1.8481872081756592e+00</stageThreshold>
      <weakClassifiers>
        <_>
          <internalNodes>
            0 -1 119 1.0208366438746452e-02</internalNodes>
          <leafValues>
            -8.6304128170013428e-01 -1.4503817260265350e-01</leafValues></_>
        <_>
          <internalNodes>
            0 -1 3 -1.1875912547111511e-02</internalNodes>
          <leafValues>
            1.3043627142906189e-01 -6.2856519222259521e-01</leafValues></_>
        <_>
          <internalNodes>
            0 -1 10 3.0417662113904953e-02</internalNodes>
          <leafValues>
            -3.8170775771141052e-01 4.5800766348838806e-01</leafValues></_>
        <_>
          <internalNodes>
            0 -1 13 -3.7207528948783875e-02</internalNodes>
          <leafValues>
            7.7308845520019531e-01 -1.8249653279781342e-01</leafValues></_>
        <_>
          <internalNodes>
            0 -1 87 -9.8095834255218506e-03</internalNodes>
          <leafValues>
            4.1487422585487366e-01 -3.1323835253715515e-01</leafValues></_>
        <_>
          <internalNodes>
            0 -1 30 -3.4310077317059040e-03</internalNodes>
          <leafValues>
            3.1166264414787292e-01 -4.4108775258064270e-01</leafValues></_>
        <_>
          <internalNodes>
            0 -1 76 -2.5117135373875499e-04</internalNodes>
          <leafValues>
            -7.8052389621734619e-01 2.0919927954673767e-01</leafValues></_></weakClassifiers></_>
    <!-- stage 12 -->
    <_>
      <maxWeakCount>7</maxWeakCount>
      <stageThreshold>-1.6605980396270752e+00</stageThreshold>
      <weakClassifiers>
        <_>
          <internalNodes>
            0 -1 90 -3.1967032700777054e-02</internalNodes>
          <leafValues>
            -3.6612021923065186e-01 -8.5972368717193604e-01</leafValues></_>
        <_>
          <internalNodes>
            0 -1 112 -4.9022966995835304e-03</internalNodes>
          <leafValues>
            2.0070075988769531e-01 -5.5146569013595581e-01</leafValues></_>
        <_>
          <internalNodes>
            0 -1 56 1.7817806452512741e-02</internalNodes>
          <leafValues>
            1.2590667605400085e-01 -8.4367001056671143e-01</leafValues></_>
        <_>
          <internalNodes>
            0 -1 114 -5.4679485037922859e-03</internalNodes>
          <leafValues>
            4.7062268853187561e-01 -2.9761657118797302e-01</leafValues></_>
        <_>
          <internalNodes>
            0 -1 67 -6.0583261074498296e-04</internalNodes>
          <leafValues>
            -6.4801341295242310e-01 2.1676780283451080e-01</leafValues></_>
        <_>
          <internalNodes>
            0 -1 40 -3.2599512487649918e-02</internalNodes>
          <leafValues>
            4.1938760876655579e-01 -3.4338310360908508e-01</leafValues></_>
        <_>
          <internalNodes>
            0 -1 6 7.0155989378690720e-03</internalNodes>
          <leafValues>
            1.5092705190181732e-01 -9.3124884366989136e-01</leafValues></_></weakClassifiers></_>
    <!-- stage 13 -->
    <_>
      <maxWeakCount>10</maxWeakCount>
      <stageThreshold>-1.7566589117050171e+00</stageThreshold>
      <weakClassifiers>
        <_>
          <internalNodes>
            0 -1 11 -9.4009684398770332e-03</internalNodes>
          <leafValues>
            1.6393441706895828e-02 -8.2502353191375732e-01</leafValues></_>
        <_>
          <internalNodes>
            0 -1 18 -1.0592520236968994e-02</internalNodes>
          <leafValues>
            4.8739191889762878e-01 -4.6588197350502014e-01</leafValues></_>
        <_>
          <internalNodes>
            0 -1 80 -5.5166485253721476e-04</internalNodes>
          <leafValues>
            -7.9631757736206055e-01 1.2428673356771469e-01</leafValues></_>
        <_>
          <internalNodes>
            0 -1 121 7.1321204304695129e-03</internalNodes>
          <leafValues>
            -2.4189072847366333e-01 5.6313490867614746e-01</leafValues></_>
        <_>
          <internalNodes>
            0 -1 123 -9.5798540860414505e-04</internalNodes>
          <leafValues>
            6.6013902425765991e-01 -1.6030357778072357e-01</leafValues></_>
        <_>
          <internalNodes>
            0 -1 101 -3.1267761369235814e-04</internalNodes>
          <leafValues>
            -8.6370706558227539e-01 1.5940266847610474e-01</leafValues></_>
        <_>
          <internalNodes>
            0 -1 83 -1.8512451788410544e-05</internalNodes>
          <leafValues>
            1.0873068124055862e-01 -8.2622998952865601e-01</leafValues></_>
        <_>
          <internalNodes>
            0 -1 17 -7.5777351856231689e-02</internalNodes>
          <leafValues>
            6.5658092498779297e-01 -2.0738209784030914e-01</leafValues></_>
        <_>
          <internalNodes>
            0 -1 52 -2.1628558635711670e-02</internalNodes>
          <leafValues>
            3.9932644367218018e-01 -4.0293228626251221e-01</leafValues></_>
        <_>
          <internalNodes>
            0 -1 91 4.4056205078959465e-03</internalNodes>
          <leafValues>
            -3.7562716007232666e-01 3.5700234770774841e-01</leafValues></_></weakClassifiers></_>
    <!-- stage 14 -->
    <_>
      <maxWeakCount>9</maxWeakCount>
      <stageThreshold>-1.6761702299118042e+00</stageThreshold>
      <weakClassifiers>
        <_>
          <internalNodes>
            0 -1 99 -1.5535635873675346e-02</internalNodes>
          <leafValues>
            -2.7118644118309021e-01 -8.3896619081497192e-01</leafValues></_>
        <_>
          <internalNodes>
            0 -1 113 -4.4918572530150414e-03</internalNodes>
          <leafValues>
            1.5501157939434052e-01 -5.4673767089843750e-01</leafValues></_>
        <_>
          <internalNodes>
            0 -1 63 -5.7157631963491440e-03</internalNodes>
          <leafValues>
            -7.5982105731964111e-01 1.4390486478805542e-01</leafValues></_>
        <_>
          <internalNodes>
            0 -1 31 -9.3420231714844704e-03</internalNodes>
          <leafValues>
            3.6017191410064697e-01 -3.4572350978851318e-01</leafValues></_>
        <_>
          <internalNodes>
            0 -1 39 1.1904145777225494e-01</internalNodes>
          <leafValues>
            -4.0947127342224121e-01 3.6006096005439758e-01</leafValues></_>
        <_>
          <internalNodes>
            0 -1 117 1.2376992963254452e-03</internalNodes>
          <leafValues>
            1.4980900287628174e-01 -8.1602734327316284e-01</leafValues></_>
        <_>
          <internalNodes>
            0 -1 115 5.7822680100798607e-03</internalNodes>
          <leafValues>
            -1.8401376903057098e-01 7.1418642997741699e-01</leafValues></_>
        <_>
          <internalNodes>
            0 -1 55 -1.8204374937340617e-03</internalNodes>
          <leafValues>
            3.5269123315811157e-01 -3.7259238958358765e-01</leafValues></_>
        <_>
          <internalNodes>
            0 -1 5 -2.4762803316116333e-01</internalNodes>
          <leafValues>
            -8.3346325159072876e-01 1.3653081655502319e-01</leafValues></_></weakClassifiers></_>
    <!-- stage 15 -->
    <_>
      <maxWeakCount>9</maxWeakCount>
      <stageThreshold>-1.6253569126129150e+00</stageThreshold>
      <weakClassifiers>
        <_>
          <internalNodes>
            0 -1 15 -4.6352548524737358e-03</internalNodes>
          <leafValues>
            -2.1839080750942230e-01 -8.2642239332199097e-01</leafValues></_>
        <_>
          <internalNodes>
            0 -1 109 8.5438732057809830e-03</internalNodes>
          <leafValues>
            -4.6215757727622986e-01 3.3365508913993835e-01</leafValues></_>
        <_>
          <internalNodes>
            0 -1 88 -1.2366353075776715e-05</internalNodes>
          <leafValues>
            2.2039151191711426e-01 -5.0212055444717407e-01</leafValues></_>
        <_>
          <internalNodes>
            0 -1 71 2.0356000459287316e-04</internalNodes>
          <leafValues>
            1.5294772386550903e-01 -6.6608923673629761e-01</leafValues></_>
        <_>
          <internalNodes>
            0 -1 45 -5.8998132590204477e-04</internalNodes>
          <leafValues>
            -5.3210115432739258e-01 2.0862792432308197e-01</leafValues></_>
        <_>
          <internalNodes>
            0 -1 102 -3.0719989445060492e-04</internalNodes>
          <leafValues>
            2.1414099633693695e-01 -4.7074961662292480e-01</leafValues></_>
        <_>
          <internalNodes>
            0 -1 0 -2.2172727040015161e-04</internalNodes>
          <leafValues>
            -5.4804736375808716e-01 1.9256985187530518e-01</leafValues></_>
        <_>
          <internalNodes>
            0 -1 65 -3.8354231510311365e-03</internalNodes>
          <leafValues>
            3.8482791185379028e-01 -2.8934374451637268e-01</leafValues></_>
        <_>
          <internalNodes>
            0 -1 41 -8.7688751518726349e-03</internalNodes>
          <leafValues>
            5.1520442962646484e-01 -2.0635525882244110e-01</leafValues></_></weakClassifiers></_>
    <!-- stage 16 -->
    <_>
      <maxWeakCount>8</maxWeakCount>
      <stageThreshold>-1.5098216533660889e+00</stageThreshold>
      <weakClassifiers>
        <_>
          <internalNodes>
            0 -1 48 -2.0581951737403870e-01</internalNodes>
          <leafValues>
            3.6363637447357178e-01 -8.0217784643173218e-01</leafValues></_>
        <_>
          <internalNodes>
            0 -1 58 1.3239514827728271e-01</internalNodes>
          <leafValues>
            -5.7317626476287842e-01 1.2211763858795166e-01</leafValues></_>
        <_>
          <internalNodes>
            0 -1 124 -2.5440100580453873e-04</internalNodes>
          <leafValues>
            -5.8986788988113403e-01 1.6249832510948181e-01</leafValues></_>
        <_>
          <internalNodes>
            0 -1 75 -1.5678757335990667e-05</internalNodes>
          <leafValues>
            1.2764626741409302e-01 -8.3132195472717285e-01</leafValues></_>
        <_>
          <internalNodes>
            0 -1 122 3.1858040019869804e-03</internalNodes>
          <leafValues>
            -2.1801079809665680e-01 4.7914487123489380e-01</leafValues></_>
        <_>
          <internalNodes>
            0 -1 100 -3.4749333281069994e-05</internalNodes>
          <leafValues>
            2.1912196278572083e-01 -5.0317811965942383e-01</leafValues></_>
        <_>
          <internalNodes>
            0 -1 66 9.8728481680154800e-04</internalNodes>
          <leafValues>
            1.2627552449703217e-01 -8.7737536430358887e-01</leafValues></_>
        <_>
          <internalNodes>
            0 -1 98 7.0589000824838877e-04</internalNodes>
          <leafValues>
            -2.4364179372787476e-01 5.2089512348175049e-01</leafValues></_></weakClassifiers></_>
    <!-- stage 17 -->
    <_>
      <maxWeakCount>10</maxWeakCount>
      <stageThreshold>-1.8210418224334717e+00</stageThreshold>
      <weakClassifiers>
        <_>
          <internalNodes>
            0 -1 14 -4.7882854938507080e-02</internalNodes>
          <leafValues>
            -1.9512194395065308e-01 -8.2533591985702515e-01</leafValues></_>
        <_>
          <internalNodes>
            0 -1 12 -3.3049411140382290e-03</internalNodes>
          <leafValues>
            2.2667980194091797e-01 -4.8920580744743347e-01</leafValues></_>
        <_>
          <internalNodes>
            0 -1 26 -3.6836851388216019e-02</internalNodes>
          <leafValues>
            4.7003901004791260e-01 -2.5651946663856506e-01</leafValues></_>
        <_>
          <internalNodes>
            0 -1 74 2.6368347462266684e-03</internalNodes>
          <leafValues>
            1.4477606117725372e-01 -8.9389824867248535e-01</leafValues></_>
        <_>
          <internalNodes>
            0 -1 82 -1.8196505261585116e-03</internalNodes>
          <leafValues>
            6.3761979341506958e-01 -1.8865889310836792e-01</leafValues></_>
        <_>
          <internalNodes>
            0 -1 1 9.9833717104047537e-04</internalNodes>
          <leafValues>
            1.3984119892120361e-01 -9.0352112054824829e-01</leafValues></_>
        <_>
          <internalNodes>
            0 -1 120 -1.1149526108056307e-03</internalNodes>
          <leafValues>
            3.7008622288703918e-01 -2.8813505172729492e-01</leafValues></_>
        <_>
          <internalNodes>
            0 -1 107 -1.0733364615589380e-03</internalNodes>
          <leafValues>
            3.4010317921638489e-01 -2.9515489935874939e-01</leafValues></_>
        <_>
          <internalNodes>
            0 -1 124 2.3526993754785508e-04</internalNodes>
          <leafValues>
            1.4225807785987854e-01 -7.6087492704391479e-01</leafValues></_>
        <_>
          <internalNodes>
            0 -1 70 -4.1482832282781601e-02</internalNodes>
          <leafValues>
            -9.5636081695556641e-01 9.5092751085758209e-02</leafValues></_></weakClassifiers></_></stages>
  <features>
    <_>
      <rects>
        <_>
          0 0 1 2 -1.</_>
        <_>
          0 1 1 1 2.</_></rects>
      <tilted>0</tilted></_>
    <_>
      <rects>
        <_>
          0 0 5 2 -1.</_>
        <_>
          0 1 5 1 2.</_></rects>
      <tilted>0</tilted></_>
    <_>
      <rects>
        <_>
          0 0 14 8 -1.</_>
        <_>
          0 0 7 4 2.</_>
        <_>
          7 4 7 4 2.</_></rects>
      <tilted>0</tilted></_>
    <_>
      <rects>
        <_>
          0 1 9 8 -1.</_>
        <_>
          3 1 3 8 3.</_></rects>
      <tilted>0</tilted></_>
    <_>
      <rects>
        <_>
          0 1 14 4 -1.</_>
        <_>
          0 1 7 2 2.</_>
        <_>
          7 3 7 2 2.</_></rects>
      <tilted>0</tilted></_>
    <_>
      <rects>
        <_>
          0 1 18 18 -1.</_>
        <_>
          0 7 18 6 3.</_></rects>
      <tilted>0</tilted></_>
    <_>
      <rects>
        <_>
          0 2 1 10 -1.</_>
        <_>
          0 7 1 5 2.</_></rects>
      <tilted>0</tilted></_>
    <_>
      <rects>
        <_>
          0 2 2 11 -1.</_>
        <_>
          1 2 1 11 2.</_></rects>
      <tilted>0</tilted></_>
    <_>
      <rects>
        <_>
          0 4 4 16 -1.</_>
        <_>
          2 4 2 16 2.</_></rects>
      <tilted>0</tilted></_>
    <_>
      <rects>
        <_>
          0 4 6 17 -1.</_>
        <_>
          2 4 2 17 3.</_></rects>
      <tilted>0</tilted></_>
    <_>
      <rects>
        <_>
          0 4 6 16 -1.</_>
        <_>
          3 4 3 16 2.</_></rects>
      <tilted>0</tilted></_>
    <_>
      <rects>
        <_>
          0 6 2 6 -1.</_>
        <_>
          1 6 1 6 2.</_></rects>
      <tilted>0</tilted></_>
    <_>
      <rects>
        <_>
          0 9 3 5 -1.</_>
        <_>
          1 9 1 5 3.</_></rects>
      <tilted>0</tilted></_>
    <_>
      <rects>
        <_>
          0 10 6 10 -1.</_>
        <_>
          3 10 3 10 2.</_></rects>
      <tilted>0</tilted></_>
    <_>
      <rects>
        <_>
          0 11 6 13 -1.</_>
        <_>
          3 11 3 13 2.</_></rects>
      <tilted>0</tilted></_>
    <_>
      <rects>
        <_>
          0 12 3 3 -1.</_>
        <_>
          1 12 1 3 3.</_></rects>
      <tilted>0</tilted></_>
    <_>
      <rects>
        <_>
          0 13 3 5 -1.</_>
        <_>
          1 13 1 5 3.</_></rects>
      <tilted>0</tilted></_>
    <_>
      <rects>
        <_>
          0 15 24 6 -1.</_>
        <_>
          8 15 8 6 3.</_></rects>
      <tilted>0</tilted></_>
    <_>
      <rects>
        <_>
          0 18 6 4 -1.</_>
        <_>
          0 18 3 2 2.</_>
        <_>
          3 20 3 2 2.</_></rects>
      <tilted>0</tilted></_>
    <_>
      <rects>
        <_>
          0 20 24 2 -1.</_>
        <_>
          8 20 8 2 3.</_></rects>
      <tilted>0</tilted></_>
    <_>
      <rects>
        <_>
          0 22 18 2 -1.</_>
        <_>
          0 22 9 1 2.</_>
        <_>
          9 23 9 1 2.</_></rects>
      <tilted>0</tilted></_>
    <_>
      <rects>
        <_>
          1 0 9 6 -1.</_>
        <_>
          1 2 9 2 3.</_></rects>
      <tilted>0</tilted></_>
    <_>
      <rects>
        <_>
          1 1 4 10 -1.</_>
        <_>
          1 1 2 5 2.</_>
        <_>
          3 6 2 5 2.</_></rects>
      <tilted>0</tilted></_>
    <_>
      <rects>
        <_>
          1 1 10 6 -1.</_>
        <_>
          1 1 5 3 2.</_>
        <_>
          6 4 5 3 2.</_></rects>
      <tilted>0</tilted></_>
    <_>
      <rects>
        <_>
          1 5 23 14 -1.</_>
        <_>
          1 12 23 7 2.</_></rects>
      <tilted>0</tilted></_>
    <_>
      <rects>
        <_>
          1 7 19 10 -1.</_>
        <_>
          1 12 19 5 2.</_></rects>
      <tilted>0</tilted></_>
    <_>
      <rects>
        <_>
          1 9 20 6 -1.</_>
        <_>
          1 11 20 2 3.</_></rects>
      <tilted>0</tilted></_>
    <_>
      <rects>
        <_>
          1 9 20 15 -1.</_>
        <_>
          1 14 20 5 3.</_></rects>
      <tilted>0</tilted></_>
    <_>
      <rects>
        <_>
          1 18 10 5 -1.</_>
        <_>
          6 18 5 5 2.</_></rects>
      <tilted>0</tilted></_>
    <_>
      <rects>
        <_>
          1 20 12 3 -1.</_>
        <_>
          7 20 6 3 2.</_></rects>
      <tilted>0</tilted></_>
    <_>
      <rects>
        <_>
          2 0 16 3 -1.</_>
        <_>
          2 1 16 1 3.</_></rects>
      <tilted>0</tilted></_>
    <_>
      <rects>
        <_>
          2 0 19 2 -1.</_>
        <_>
          2 1 19 1 2.</_></rects>
      <tilted>0</tilted></_>
    <_>
      <rects>
        <_>
          2 20 21 3 -1.</_>
        <_>
          9 20 7 3 3.</_></rects>
      <tilted>0</tilted></_>
    <_>
      <rects>
        <_>
          3 0 14 2 -1.</_>
        <_>
          3 1 14 1 2.</_></rects>
      <tilted>0</tilted></_>
    <_>
      <rects>
        <_>
          3 2 17 18 -1.</_>
        <_>
          3 11 17 9 2.</_></rects>
      <tilted>0</tilted></_>
    <_>
      <rects>
        <_>
          3 7 16 6 -1.</_>
        <_>
          3 9 16 2 3.</_></rects>
      <tilted>0</tilted></_>
    <_>
      <rects>
        <_>
          3 18 6 5 -1.</_>
        <_>
          6 18 3 5 2.</_></rects>
      <tilted>0</tilted></_>
    <_>
      <rects>
        <_>
          4 0 16 6 -1.</_>
        <_>
          4 2 16 2 3.</_></rects>
      <tilted>0</tilted></_>
    <_>
      <rects>
        <_>
          4 0 18 3 -1.</_>
        <_>
          4 1 18 1 3.</_></rects>
      <tilted>0</tilted></_>
    <_>
      <rects>
        <_>
          4 6 17 12 -1.</_>
        <_>
          4 12 17 6 2.</_></rects>
      <tilted>0</tilted></_>
    <_>
      <rects>
        <_>
          4 8 15 6 -1.</_>
        <_>
          4 10 15 2 3.</_></rects>
      <tilted>0</tilted></_>
    <_>
      <rects>
        <_>
          4 8 18 3 -1.</_>
        <_>
          4 9 18 1 3.</_></rects>
      <tilted>0</tilted></_>
    <_>
      <rects>
        <_>
          4 15 16 4 -1.</_>
        <_>
          4 15 8 2 2.</_>
        <_>
          12 17 8 2 2.</_></rects>
      <tilted>0</tilted></_>
    <_>
      <rects>
        <_>
          5 0 8 1 -1.</_>
        <_>
          9 0 4 1 2.</_></rects>
      <tilted>0</tilted></_>
    <_>
      <rects>
        <_>
          5 0 17 3 -1.</_>
        <_>
          5 1 17 1 3.</_></rects>
      <tilted>0</tilted></_>
    <_>
      <rects>
        <_>
          5 3 6 1 -1.</_>
        <_>
          8 3 3 1 2.</_></rects>
      <tilted>0</tilted></_>
    <_>
      <rects>
        <_>
          5 8 1 6 -1.</_>
        <_>
          5 10 1 2 3.</_></rects>
      <tilted>0</tilted></_>
    <_>
      <rects>
        <_>
          5 8 10 6 -1.</_>
        <_>
          5 10 10 2 3.</_></rects>
      <tilted>0</tilted></_>
    <_>
      <rects>
        <_>
          5 8 16 12 -1.</_>
        <_>
          5 14 16 6 2.</_></rects>
      <tilted>0</tilted></_>
    <_>
      <rects>
        <_>
          5 9 6 6 -1.</_>
        <_>
          7 9 2 6 3.</_></rects>
      <tilted>0</tilted></_>
    <_>
      <rects>
        <_>
          6 2 8 6 -1.</_>
        <_>
          6 5 8 3 2.</_></rects>
      <tilted>0</tilted></_>
    <_>
      <rects>
        <_>
          6 14 16 10 -1.</_>
        <_>
          6 19 16 5 2.</_></rects>
      <tilted>0</tilted></_>
    <_>
      <rects>
        <_>
          6 20 13 4 -1.</_>
        <_>
          6 22 13 2 2.</_></rects>
      <tilted>0</tilted></_>
    <_>
      <rects>
        <_>
          7 0 15 2 -1.</_>
        <_>
          7 1 15 1 2.</_></rects>
      <tilted>0</tilted></_>
    <_>
      <rects>
        <_>
          7 3 14 6 -1.</_>
        <_>
          7 6 14 3 2.</_></rects>
      <tilted>0</tilted></_>
    <_>
      <rects>
        <_>
          7 10 8 3 -1.</_>
        <_>
          7 11 8 1 3.</_></rects>
      <tilted>0</tilted></_>
    <_>
      <rects>
        <_>
          7 12 12 10 -1.</_>
        <_>
          7 12 6 5 2.</_>
        <_>
          13 17 6 5 2.</_></rects>
      <tilted>0</tilted></_>
    <_>
      <rects>
        <_>
          8 0 11 6 -1.</_>
        <_>
          8 2 11 2 3.</_></rects>
      <tilted>0</tilted></_>
    <_>
      <rects>
        <_>
          8 1 7 22 -1.</_>
        <_>
          8 12 7 11 2.</_></rects>
      <tilted>0</tilted></_>
    <_>
      <rects>
        <_>
          8 1 16 4 -1.</_>
        <_>
          8 1 8 2 2.</_>
        <_>
          16 3 8 2 2.</_></rects>
      <tilted>0</tilted></_>
    <_>
      <rects>
        <_>
          8 1 8 8 -1.</_>
        <_>
          8 5 8 4 2.</_></rects>
      <tilted>0</tilted></_>
    <_>
      <rects>
        <_>
          8 6 14 3 -1.</_>
        <_>
          8 7 14 1 3.</_></rects>
      <tilted>0</tilted></_>
    <_>
      <rects>
        <_>
          8 10 14 6 -1.</_>
        <_>
          8 12 14 2 3.</_></rects>
      <tilted>0</tilted></_>
    <_>
      <rects>
        <_>
          8 13 6 10 -1.</_>
        <_>
          8 13 3 5 2.</_>
        <_>
          11 18 3 5 2.</_></rects>
      <tilted>0</tilted></_>
    <_>
      <rects>
        <_>
          8 18 2 2 -1.</_>
        <_>
          9 18 1 2 2.</_></rects>
      <tilted>0</tilted></_>
    <_>
      <rects>
        <_>
          8 18 16 4 -1.</_>
        <_>
          8 18 8 2 2.</_>
        <_>
          16 20 8 2 2.</_></rects>
      <tilted>0</tilted></_>
    <_>
      <rects>
        <_>
          9 1 3 4 -1.</_>
        <_>
          10 1 1 4 3.</_></rects>
      <tilted>0</tilted></_>
    <_>
      <rects>
        <_>
          9 2 3 4 -1.</_>
        <_>
          10 2 1 4 3.</_></rects>
      <tilted>0</tilted></_>
    <_>
      <rects>
        <_>
          9 9 7 6 -1.</_>
        <_>
          9 11 7 2 3.</_></rects>
      <tilted>0</tilted></_>
    <_>
      <rects>
        <_>
          9 14 1 10 -1.</_>
        <_>
          9 19 1 5 2.</_></rects>
      <tilted>0</tilted></_>
    <_>
      <rects>
        <_>
          10 0 5 15 -1.</_>
        <_>
          10 5 5 5 3.</_></rects>
      <tilted>0</tilted></_>
    <_>
      <rects>
        <_>
          10 1 2 1 -1.</_>
        <_>
          11 1 1 1 2.</_></rects>
      <tilted>0</tilted></_>
    <_>
      <rects>
        <_>
          10 1 3 4 -1.</_>
        <_>
          11 1 1 4 3.</_></rects>
      <tilted>0</tilted></_>
    <_>
      <rects>
        <_>
          10 15 1 9 -1.</_>
        <_>
          10 18 1 3 3.</_></rects>
      <tilted>0</tilted></_>
    <_>
      <rects>
        <_>
          10 16 1 6 -1.</_>
        <_>
          10 18 1 2 3.</_></rects>
      <tilted>0</tilted></_>
    <_>
      <rects>
        <_>
          10 18 3 4 -1.</_>
        <_>
          10 20 3 2 2.</_></rects>
      <tilted>0</tilted></_>
    <_>
      <rects>
        <_>
          11 1 2 1 -1.</_>
        <_>
          12 1 1 1 2.</_></rects>
      <tilted>0</tilted></_>
    <_>
      <rects>
        <_>
          11 2 3 7 -1.</_>
        <_>
          12 2 1 7 3.</_></rects>
      <tilted>0</tilted></_>
    <_>
      <rects>
        <_>
          11 8 4 6 -1.</_>
        <_>
          11 10 4 2 3.</_></rects>
      <tilted>0</tilted></_>
    <_>
      <rects>
        <_>
          12 1 3 4 -1.</_>
        <_>
          13 1 1 4 3.</_></rects>
      <tilted>0</tilted></_>
    <_>
      <rects>
        <_>
          12 2 3 2 -1.</_>
        <_>
          13 2 1 2 3.</_></rects>
      <tilted>0</tilted></_>
    <_>
      <rects>
        <_>
          12 3 3 3 -1.</_>
        <_>
          13 3 1 3 3.</_></rects>
      <tilted>0</tilted></_>
    <_>
      <rects>
        <_>
          12 12 7 2 -1.</_>
        <_>
          12 13 7 1 2.</_></rects>
      <tilted>0</tilted></_>
    <_>
      <rects>
        <_>
          12 17 1 6 -1.</_>
        <_>
          12 20 1 3 2.</_></rects>
      <tilted>0</tilted></_>
    <_>
      <rects>
        <_>
          13 2 10 4 -1.</_>
        <_>
          13 2 5 2 2.</_>
        <_>
          18 4 5 2 2.</_></rects>
      <tilted>0</tilted></_>
    <_>
      <rects>
        <_>
          13 3 3 1 -1.</_>
        <_>
          14 3 1 1 3.</_></rects>
      <tilted>0</tilted></_>
    <_>
      <rects>
        <_>
          13 20 3 4 -1.</_>
        <_>
          14 20 1 4 3.</_></rects>
      <tilted>0</tilted></_>
    <_>
      <rects>
        <_>
          13 20 5 4 -1.</_>
        <_>
          13 22 5 2 2.</_></rects>
      <tilted>0</tilted></_>
    <_>
      <rects>
        <_>
          14 0 1 2 -1.</_>
        <_>
          14 1 1 1 2.</_></rects>
      <tilted>0</tilted></_>
    <_>
      <rects>
        <_>
          14 0 10 12 -1.</_>
        <_>
          14 0 5 6 2.</_>
        <_>
          19 6 5 6 2.</_></rects>
      <tilted>0</tilted></_>
    <_>
      <rects>
        <_>
          14 1 8 6 -1.</_>
        <_>
          14 1 4 3 2.</_>
        <_>
          18 4 4 3 2.</_></rects>
      <tilted>0</tilted></_>
    <_>
      <rects>
        <_>
          14 2 1 9 -1.</_>
        <_>
          14 5 1 3 3.</_></rects>
      <tilted>0</tilted></_>
    <_>
      <rects>
        <_>
          14 15 4 3 -1.</_>
        <_>
          16 15 2 3 2.</_></rects>
      <tilted>0</tilted></_>
    <_>
      <rects>
        <_>
          14 16 2 3 -1.</_>
        <_>
          15 16 1 3 2.</_></rects>
      <tilted>0</tilted></_>
    <_>
      <rects>
        <_>
          14 16 2 6 -1.</_>
        <_>
          14 16 1 3 2.</_>
        <_>
          15 19 1 3 2.</_></rects>
      <tilted>0</tilted></_>
    <_>
      <rects>
        <_>
          14 20 10 1 -1.</_>
        <_>
          19 20 5 1 2.</_></rects>
      <tilted>0</tilted></_>
    <_>
      <rects>
        <_>
          15 1 8 8 -1.</_>
        <_>
          15 1 4 4 2.</_>
        <_>
          19 5 4 4 2.</_></rects>
      <tilted>0</tilted></_>
    <_>
      <rects>
        <_>
          15 15 3 6 -1.</_>
        <_>
          15 18 3 3 2.</_></rects>
      <tilted>0</tilted></_>
    <_>
      <rects>
        <_>
          15 21 1 3 -1.</_>
        <_>
          15 22 1 1 3.</_></rects>
      <tilted>0</tilted></_>
    <_>
      <rects>
        <_>
          16 2 6 4 -1.</_>
        <_>
          16 2 3 2 2.</_>
        <_>
          19 4 3 2 2.</_></rects>
      <tilted>0</tilted></_>
    <_>
      <rects>
        <_>
          17 4 2 4 -1.</_>
        <_>
          18 4 1 4 2.</_></rects>
      <tilted>0</tilted></_>
    <_>
      <rects>
        <_>
          18 0 4 1 -1.</_>
        <_>
          20 0 2 1 2.</_></rects>
      <tilted>0</tilted></_>
    <_>
      <rects>
        <_>
          18 2 6 2 -1.</_>
        <_>
          18 3 6 1 2.</_></rects>
      <tilted>0</tilted></_>
    <_>
      <rects>
        <_>
          18 3 6 7 -1.</_>
        <_>
          20 3 2 7 3.</_></rects>
      <tilted>0</tilted></_>
    <_>
      <rects>
        <_>
          18 5 6 18 -1.</_>
        <_>
          20 5 2 18 3.</_></rects>
      <tilted>0</tilted></_>
    <_>
      <rects>
        <_>
          18 15 1 6 -1.</_>
        <_>
          18 18 1 3 2.</_></rects>
      <tilted>0</tilted></_>
    <_>
      <rects>
        <_>
          18 16 6 5 -1.</_>
        <_>
          21 16 3 5 2.</_></rects>
      <tilted>0</tilted></_>
    <_>
      <rects>
        <_>
          18 20 6 1 -1.</_>
        <_>
          20 20 2 1 3.</_></rects>
      <tilted>0</tilted></_>
    <_>
      <rects>
        <_>
          19 0 4 14 -1.</_>
        <_>
          19 0 2 7 2.</_>
        <_>
          21 7 2 7 2.</_></rects>
      <tilted>0</tilted></_>
    <_>
      <rects>
        <_>
          19 18 4 6 -1.</_>
        <_>
          19 18 2 3 2.</_>
        <_>
          21 21 2 3 2.</_></rects>
      <tilted>0</tilted></_>
    <_>
      <rects>
        <_>
          20 3 4 16 -1.</_>
        <_>
          20 3 2 8 2.</_>
        <_>
          22 11 2 8 2.</_></rects>
      <tilted>0</tilted></_>
    <_>
      <rects>
        <_>
          21 1 2 2 -1.</_>
        <_>
          21 2 2 1 2.</_></rects>
      <tilted>0</tilted></_>
    <_>
      <rects>
        <_>
          21 2 3 10 -1.</_>
        <_>
          22 2 1 10 3.</_></rects>
      <tilted>0</tilted></_>
    <_>
      <rects>
        <_>
          21 3 3 9 -1.</_>
        <_>
          22 3 1 9 3.</_></rects>
      <tilted>0</tilted></_>
    <_>
      <rects>
        <_>
          21 3 2 18 -1.</_>
        <_>
          21 3 1 9 2.</_>
        <_>
          22 12 1 9 2.</_></rects>
      <tilted>0</tilted></_>
    <_>
      <rects>
        <_>
          21 5 3 9 -1.</_>
        <_>
          22 5 1 9 3.</_></rects>
      <tilted>0</tilted></_>
    <_>
      <rects>
        <_>
          21 6 3 9 -1.</_>
        <_>
          22 6 1 9 3.</_></rects>
      <tilted>0</tilted></_>
    <_>
      <rects>
        <_>
          21 6 3 3 -1.</_>
        <_>
          21 7 3 1 3.</_></rects>
      <tilted>0</tilted></_>
    <_>
      <rects>
        <_>
          22 2 2 19 -1.</_>
        <_>
          23 2 1 19 2.</_></rects>
      <tilted>0</tilted></_>
    <_>
      <rects>
        <_>
          22 3 2 9 -1.</_>
        <_>
          23 3 1 9 2.</_></rects>
      <tilted>0</tilted></_>
    <_>
      <rects>
        <_>
          22 10 2 4 -1.</_>
        <_>
          22 10 1 2 2.</_>
        <_>
          23 12 1 2 2.</_></rects>
      <tilted>0</tilted></_>
    <_>
      <rects>
        <_>
          22 10 2 8 -1.</_>
        <_>
          23 10 1 8 2.</_></rects>
      <tilted>0</tilted></_>
    <_>
      <rects>
        <_>
          22 12 2 5 -1.</_>
        <_>
          23 12 1 5 2.</_></rects>
      <tilted>0</tilted></_>
    <_>
      <rects>
        <_>
          22 14 2 1 -1.</_>
        <_>
          23 14 1 1 2.</_></rects>
      <tilted>0</tilted></_>
    <_>
      <rects>
        <_>
          23 0 1 2 -1.</_>
        <_>
          23 1 1 1 2.</_></rects>
      <tilted>0</tilted></_></features></cascade>
</opencv_storage>
