<?xml version="1.0"?>
<opencv_storage>
<cascade>
  <stageType>BOOST</stageType>
  <featureType>HAAR</featureType>
  <height>24</height>
  <width>24</width>
  <stageParams>
    <boostType>GAB</boostType>
    <minHitRate>9.9500000476837158e-01</minHitRate>
    <maxFalseAlarm>5.0000000000000000e-01</maxFalseAlarm>
    <weightTrimRate>9.4999998807907104e-01</weightTrimRate>
    <maxDepth>1</maxDepth>
    <maxWeakCount>100</maxWeakCount></stageParams>
  <featureParams>
    <maxCatCount>0</maxCatCount>
    <featSize>1</featSize>
    <mode>BASIC</mode></featureParams>
  <stageNum>18</stageNum>
  <stages>
    <!-- stage 0 -->
    <_>
      <maxWeakCount>4</maxWeakCount>
      <stageThreshold>-1.7563313245773315e+00</stageThreshold>
      <weakClassifiers>
        <_>
          <internalNodes>
            0 -1 89 -1.4091658405959606e-02</internalNodes>
          <leafValues>
            6.3999998569488525e-01 -9.0864914655685425e-01</leafValues></_>
        <_>
          <internalNodes>
            0 -1 108 -8.3164554089307785e-03</internalNodes>
          <leafValues>
            7.3612284660339355e-01 -7.1052896976470947e-01</leafValues></_>
        <_>
          <internalNodes>
            0 -1 3 3.3769164234399796e-02</internalNodes>
          <leafValues>
            -6.1719244718551636e-01 6.7028915882110596e-01</leafValues></_>
        <_>
          <internalNodes>
            0 -1 56 -1.6180790960788727e-02</internalNodes>
          <leafValues>
            4.8003929853439331e-01 -9.1162306070327759e-01</leafValues></_></weakClassifiers></_>
    <!-- stage 1 -->
    <_>
      <maxWeakCount>4</maxWeakCount>
      <stageThreshold>-1.3620004653930664e+00</stageThreshold>
      <weakClassifiers>
        <_>
          <internalNodes>
            0 -1 70 -3.0911292880773544e-02</internalNodes>
          <leafValues>
            5.3535354137420654e-01 -8.9708739519119263e-01</leafValues></_>
        <_>
          <internalNodes>
            0 -1 53 -6.6811372525990009e-03</internalNodes>
          <leafValues>
            5.5039066076278687e-01 -7.4431526660919189e-01</leafValues></_>
        <_>
          <internalNodes>
            0 -1 20 1.1470415443181992e-01</internalNodes>
          <leafValues>
            -4.8862078785896301e-01 7.9410684108734131e-01</leafValues></_>
        <_>
          <internalNodes>
            0 -1 54 -2.1036285907030106e-02</internalNodes>
          <leafValues>
            7.6802301406860352e-01 -3.8785061240196228e-01</leafValues></_></weakClassifiers></_>
    <!-- stage 2 -->
    <_>
      <maxWeakCount>6</maxWeakCount>
      <stageThreshold>-1.8083571195602417e+00</stageThreshold>
      <weakClassifiers>
        <_>
          <internalNodes>
            0 -1 27 3.1965412199497223e-02</internalNodes>
          <leafValues>
            -9.0436589717864990e-01 -5.9880241751670837e-03</leafValues></_>
        <_>
          <internalNodes>
            0 -1 10 1.4126184582710266e-01</internalNodes>
          <leafValues>
            -7.2227823734283447e-01 2.6245763897895813e-01</leafValues></_>
        <_>
          <internalNodes>
            0 -1 75 -1.3106979429721832e-02</internalNodes>
          <leafValues>
            4.8087945580482483e-01 -5.3669011592864990e-01</leafValues></_>
        <_>
          <internalNodes>
            0 -1 6 -1.8081933259963989e-02</internalNodes>
          <leafValues>
            6.9611728191375732e-01 -3.4874403476715088e-01</leafValues></_>
        <_>
          <internalNodes>
            0 -1 95 9.4034755602478981e-03</internalNodes>
          <leafValues>
            -3.7543514370918274e-01 6.2768775224685669e-01</leafValues></_>
        <_>
          <internalNodes>
            0 -1 106 -5.2790797781199217e-04</internalNodes>
          <leafValues>
            -8.2234448194503784e-01 2.8513634204864502e-01</leafValues></_></weakClassifiers></_>
    <!-- stage 3 -->
    <_>
      <maxWeakCount>6</maxWeakCount>
      <stageThreshold>-1.6114698648452759e+00</stageThreshold>
      <weakClassifiers>
        <_>
          <internalNodes>
            0 -1 44 -6.2185503542423248e-02</internalNodes>
          <leafValues>
            -2.3750501092906387e-17 -8.7537688016891479e-01</leafValues></_>
        <_>
          <internalNodes>
            0 -1 109 -1.5015420503914356e-02</internalNodes>
          <leafValues>
            3.9339897036552429e-01 -6.0598009824752808e-01</leafValues></_>
        <_>
          <internalNodes>
            0 -1 2 2.2973045706748962e-02</internalNodes>
          <leafValues>
            -5.8888757228851318e-01 3.6358505487442017e-01</leafValues></_>
        <_>
          <internalNodes>
            0 -1 61 -1.5858327969908714e-03</internalNodes>
          <leafValues>
            2.3916390538215637e-01 -7.9414772987365723e-01</leafValues></_>
        <_>
          <internalNodes>
            0 -1 25 5.3626927547156811e-04</internalNodes>
          <leafValues>
            2.1076424419879913e-01 -8.3884721994400024e-01</leafValues></_>
        <_>
          <internalNodes>
            0 -1 79 -5.4582371376454830e-04</internalNodes>
          <leafValues>
            -8.5200738906860352e-01 1.8308110535144806e-01</leafValues></_></weakClassifiers></_>
    <!-- stage 4 -->
    <_>
      <maxWeakCount>6</maxWeakCount>
      <stageThreshold>-1.4784322977066040e+00</stageThreshold>
      <weakClassifiers>
        <_>
          <internalNodes>
            0 -1 123 1.0197553783655167e-02</internalNodes>
          <leafValues>
            -8.4817242622375488e-01 5.4838711023330688e-01</leafValues></_>
        <_>
          <internalNodes>
            0 -1 46 -3.1836010515689850e-02</internalNodes>
          <leafValues>
            3.4049373865127563e-01 -5.9013992547988892e-01</leafValues></_>
        <_>
          <internalNodes>
            0 -1 69 1.2906678020954132e-02</internalNodes>
          <leafValues>
            -6.4171445369720459e-01 3.0988004803657532e-01</leafValues></_>
        <_>
          <internalNodes>
            0 -1 23 -7.6187662780284882e-03</internalNodes>
          <leafValues>
            6.3357877731323242e-01 -2.9020494222640991e-01</leafValues></_>
        <_>
          <internalNodes>
            0 -1 42 -1.7870446667075157e-02</internalNodes>
          <leafValues>
            7.0576041936874390e-01 -2.5766679644584656e-01</leafValues></_>
        <_>
          <internalNodes>
            0 -1 86 1.3948490377515554e-03</internalNodes>
          <leafValues>
            2.2568257153034210e-01 -9.6410357952117920e-01</leafValues></_></weakClassifiers></_>
    <!-- stage 5 -->
    <_>
      <maxWeakCount>6</maxWeakCount>
      <stageThreshold>-1.6461675167083740e+00</stageThreshold>
      <weakClassifiers>
        <_>
          <internalNodes>
            0 -1 120 -1.2349592521786690e-02</internalNodes>
          <leafValues>
            3.3333334326744080e-01 -8.3348923921585083e-01</leafValues></_>
        <_>
          <internalNodes>
            0 -1 29 1.3893123716115952e-02</internalNodes>
          <leafValues>
            -5.6923413276672363e-01 3.1178537011146545e-01</leafValues></_>
        <_>
          <internalNodes>
            0 -1 102 9.2387432232499123e-05</internalNodes>
          <leafValues>
            1.6807539761066437e-01 -8.6771869659423828e-01</leafValues></_>
        <_>
          <internalNodes>
            0 -1 125 7.3627626989036798e-04</internalNodes>
          <leafValues>
            1.5443170070648193e-01 -8.4666359424591064e-01</leafValues></_>
        <_>
          <internalNodes>
            0 -1 33 6.7968010902404785e-02</internalNodes>
          <leafValues>
            -2.6524856686592102e-01 6.8248611688613892e-01</leafValues></_>
        <_>
          <internalNodes>
            0 -1 16 -1.1410102248191833e-01</internalNodes>
          <leafValues>
            7.0351105928421021e-01 -2.4734205007553101e-01</leafValues></_></weakClassifiers></_>
    <!-- stage 6 -->
    <_>
      <maxWeakCount>7</maxWeakCount>
      <stageThreshold>-2.1509835720062256e+00</stageThreshold>
      <weakClassifiers>
        <_>
          <internalNodes>
            0 -1 113 -9.1078113764524460e-03</internalNodes>
          <leafValues>
            -1.8120805919170380e-01 -8.6122447252273560e-01</leafValues></_>
        <_>
          <internalNodes>
            0 -1 21 -1.1715861037373543e-02</internalNodes>
          <leafValues>
            3.0728480219841003e-01 -5.5260545015335083e-01</leafValues></_>
        <_>
          <internalNodes>
            0 -1 30 1.9440221786499023e-01</internalNodes>
          <leafValues>
            -3.7127283215522766e-01 4.8008453845977783e-01</leafValues></_>
        <_>
          <internalNodes>
            0 -1 45 -1.5869389753788710e-03</internalNodes>
          <leafValues>
            4.3621575832366943e-01 -3.4344491362571716e-01</leafValues></_>
        <_>
          <internalNodes>
            0 -1 118 5.5486466735601425e-03</internalNodes>
          <leafValues>
            -1.8621729314327240e-01 7.3782879114151001e-01</leafValues></_>
        <_>
          <internalNodes>
            0 -1 119 -4.2214598506689072e-03</internalNodes>
          <leafValues>
            5.9471940994262695e-01 -3.4476840496063232e-01</leafValues></_>
        <_>
          <internalNodes>
            0 -1 107 -1.3131437299307436e-05</internalNodes>
          <leafValues>
            3.5303899645805359e-01 -4.1549634933471680e-01</leafValues></_></weakClassifiers></_>
    <!-- stage 7 -->
    <_>
      <maxWeakCount>4</maxWeakCount>
      <stageThreshold>-1.8966747522354126e+00</stageThreshold>
      <weakClassifiers>
        <_>
          <internalNodes>
            0 -1 50 -2.2894654422998428e-02</internalNodes>
          <leafValues>
            5.1020407676696777e-01 -8.2962960004806519e-01</leafValues></_>
        <_>
          <internalNodes>
            0 -1 39 2.6575359702110291e-01</internalNodes>
          <leafValues>
            -6.7376339435577393e-01 3.2078960537910461e-01</leafValues></_>
        <_>
          <internalNodes>
            0 -1 72 -7.3175574652850628e-04</internalNodes>
          <leafValues>
            -8.8192921876907349e-01 2.0813366770744324e-01</leafValues></_>
        <_>
          <internalNodes>
            0 -1 71 5.2780925761908293e-04</internalNodes>
          <leafValues>
            2.3486466705799103e-01 -8.5118615627288818e-01</leafValues></_></weakClassifiers></_>
    <!-- stage 8 -->
    <_>
      <maxWeakCount>6</maxWeakCount>
      <stageThreshold>-1.8501377105712891e+00</stageThreshold>
      <weakClassifiers>
        <_>
          <internalNodes>
            0 -1 48 -4.1154850274324417e-02</internalNodes>
          <leafValues>
            -1.6666667163372040e-01 -8.6844807863235474e-01</leafValues></_>
        <_>
          <internalNodes>
            0 -1 43 1.2797391718777362e-05</internalNodes>
          <leafValues>
            -6.9740957021713257e-01 6.9122552871704102e-02</leafValues></_>
        <_>
          <internalNodes>
            0 -1 85 -1.6619183588773012e-03</internalNodes>
          <leafValues>
            -8.2356727123260498e-01 1.8515917658805847e-01</leafValues></_>
        <_>
          <internalNodes>
            0 -1 83 -6.2501768115907907e-04</internalNodes>
          <leafValues>
            -8.3382594585418701e-01 2.0682424306869507e-01</leafValues></_>
        <_>
          <internalNodes>
            0 -1 47 -9.4438567757606506e-03</internalNodes>
          <leafValues>
            -9.2319339513778687e-01 1.1613693833351135e-01</leafValues></_>
        <_>
          <internalNodes>
            0 -1 63 -1.5538922525593080e-05</internalNodes>
          <leafValues>
            3.1881168484687805e-01 -5.5020612478256226e-01</leafValues></_></weakClassifiers></_>
    <!-- stage 9 -->
    <_>
      <maxWeakCount>8</maxWeakCount>
      <stageThreshold>-1.7968976497650146e+00</stageThreshold>
      <weakClassifiers>
        <_>
          <internalNodes>
            0 -1 103 -3.3974640071392059e-02</internalNodes>
          <leafValues>
            -9.5238098874688148e-03 -8.4960937500000000e-01</leafValues></_>
        <_>
          <internalNodes>
            0 -1 26 2.8274798765778542e-02</internalNodes>
          <leafValues>
            -6.0739523172378540e-01 2.6393693685531616e-01</leafValues></_>
        <_>
          <internalNodes>
            0 -1 90 -5.1109644118696451e-04</internalNodes>
          <leafValues>
            -8.7440747022628784e-01 1.2949730455875397e-01</leafValues></_>
        <_>
          <internalNodes>
            0 -1 82 1.1832589516416192e-03</internalNodes>
          <leafValues>
            1.4144095778465271e-01 -9.5358216762542725e-01</leafValues></_>
        <_>
          <internalNodes>
            0 -1 110 2.2354204207658768e-02</internalNodes>
          <leafValues>
            -2.6782664656639099e-01 6.9217091798782349e-01</leafValues></_>
        <_>
          <internalNodes>
            0 -1 49 -3.8034275174140930e-02</internalNodes>
          <leafValues>
            5.3340476751327515e-01 -3.6082673072814941e-01</leafValues></_>
        <_>
          <internalNodes>
            0 -1 19 -6.3425158150494099e-03</internalNodes>
          <leafValues>
            6.1899620294570923e-01 -2.3254370689392090e-01</leafValues></_>
        <_>
          <internalNodes>
            0 -1 74 -5.3661689162254333e-04</internalNodes>
          <leafValues>
            -7.2976166009902954e-01 2.5036579370498657e-01</leafValues></_></weakClassifiers></_>
    <!-- stage 10 -->
    <_>
      <maxWeakCount>9</maxWeakCount>
      <stageThreshold>-1.6414886713027954e+00</stageThreshold>
      <weakClassifiers>
        <_>
          <internalNodes>
            0 -1 28 1.1548278853297234e-02</internalNodes>
          <leafValues>
            -8.5877466201782227e-01 -2.6506024599075317e-01</leafValues></_>
        <_>
          <internalNodes>
            0 -1 97 -3.5442382097244263e-02</internalNodes>
          <leafValues>
            2.3914092779159546e-01 -5.4489064216613770e-01</leafValues></_>
        <_>
          <internalNodes>
            0 -1 101 3.8827466778457165e-04</internalNodes>
          <leafValues>
            -5.2024465799331665e-01 2.5335505604743958e-01</leafValues></_>
        <_>
          <internalNodes>
            0 -1 100 -2.4732706151553430e-05</internalNodes>
          <leafValues>
            2.0666904747486115e-01 -6.2927079200744629e-01</leafValues></_>
        <_>
          <internalNodes>
            0 -1 35 1.9710543565452099e-03</internalNodes>
          <leafValues>
            1.7294310033321381e-01 -7.9139018058776855e-01</leafValues></_>
        <_>
          <internalNodes>
            0 -1 5 -8.6448788642883301e-03</internalNodes>
          <leafValues>
            6.8152713775634766e-01 -1.9647911190986633e-01</leafValues></_>
        <_>
          <internalNodes>
            0 -1 65 -1.4180477010086179e-03</internalNodes>
          <leafValues>
            -9.1385906934738159e-01 1.6303642094135284e-01</leafValues></_>
        <_>
          <internalNodes>
            0 -1 58 3.8411553949117661e-02</internalNodes>
          <leafValues>
            -3.5678821802139282e-01 3.2171183824539185e-01</leafValues></_>
        <_>
          <internalNodes>
            0 -1 22 5.5315315723419189e-02</internalNodes>
          <leafValues>
            -1.9472637772560120e-01 6.0029846429824829e-01</leafValues></_></weakClassifiers></_>
    <!-- stage 11 -->
    <_>
      <maxWeakCount>9</maxWeakCount>
      <stageThreshold>-1.7534178495407104e+00</stageThreshold>
      <weakClassifiers>
        <_>
          <internalNodes>
            0 -1 8 -3.9489623159170151e-02</internalNodes>
          <leafValues>
            3.3333334326744080e-01 -8.1734317541122437e-01</leafValues></_>
        <_>
          <internalNodes>
            0 -1 24 1.3428941369056702e-02</internalNodes>
          <leafValues>
            -5.2637302875518799e-01 2.6415497064590454e-01</leafValues></_>
        <_>
          <internalNodes>
            0 -1 73 5.7938741520047188e-04</internalNodes>
          <leafValues>
            -6.2313520908355713e-01 1.7278255522251129e-01</leafValues></_>
        <_>
          <internalNodes>
            0 -1 31 -9.2363115400075912e-03</internalNodes>
          <leafValues>
            5.1036047935485840e-01 -2.6817345619201660e-01</leafValues></_>
        <_>
          <internalNodes>
            0 -1 84 -9.0807927772402763e-03</internalNodes>
          <leafValues>
            -7.6914286613464355e-01 1.7290426790714264e-01</leafValues></_>
        <_>
          <internalNodes>
            0 -1 121 1.5581615734845400e-03</internalNodes>
          <leafValues>
            -1.8178102374076843e-01 6.8894720077514648e-01</leafValues></_>
        <_>
          <internalNodes>
            0 -1 37 -5.9841554611921310e-03</internalNodes>
          <leafValues>
            3.7217086553573608e-01 -3.4636804461479187e-01</leafValues></_>
        <_>
          <internalNodes>
            0 -1 81 -1.5537538565695286e-03</internalNodes>
          <leafValues>
            3.3924803137779236e-01 -4.1870373487472534e-01</leafValues></_>
        <_>
          <internalNodes>
            0 -1 111 -9.4325747340917587e-03</internalNodes>
          <leafValues>
            6.3484328985214233e-01 -2.5890108942985535e-01</leafValues></_></weakClassifiers></_>
    <!-- stage 12 -->
    <_>
      <maxWeakCount>8</maxWeakCount>
      <stageThreshold>-1.4790592193603516e+00</stageThreshold>
      <weakClassifiers>
        <_>
          <internalNodes>
            0 -1 7 -6.4103670418262482e-02</internalNodes>
          <leafValues>
            2.1739129722118378e-01 -8.1348109245300293e-01</leafValues></_>
        <_>
          <internalNodes>
            0 -1 94 -2.5964200496673584e-02</internalNodes>
          <leafValues>
            3.1396800279617310e-01 -5.2540624141693115e-01</leafValues></_>
        <_>
          <internalNodes>
            0 -1 36 -7.4756628600880504e-04</internalNodes>
          <leafValues>
            2.1562647819519043e-01 -5.8023327589035034e-01</leafValues></_>
        <_>
          <internalNodes>
            0 -1 112 -9.0142227709293365e-03</internalNodes>
          <leafValues>
            3.2504776120185852e-01 -4.1256392002105713e-01</leafValues></_>
        <_>
          <internalNodes>
            0 -1 40 6.1238743364810944e-02</internalNodes>
          <leafValues>
            -1.4889138936996460e-01 7.6101851463317871e-01</leafValues></_>
        <_>
          <internalNodes>
            0 -1 98 2.0736628212034702e-03</internalNodes>
          <leafValues>
            1.4295083284378052e-01 -9.8346483707427979e-01</leafValues></_>
        <_>
          <internalNodes>
            0 -1 11 3.0550942756235600e-03</internalNodes>
          <leafValues>
            -2.3201113939285278e-01 6.8301028013229370e-01</leafValues></_>
        <_>
          <internalNodes>
            0 -1 9 -1.3131437299307436e-05</internalNodes>
          <leafValues>
            3.5296523571014404e-01 -4.3441566824913025e-01</leafValues></_></weakClassifiers></_>
    <!-- stage 13 -->
    <_>
      <maxWeakCount>8</maxWeakCount>
      <stageThreshold>-1.7485725879669189e+00</stageThreshold>
      <weakClassifiers>
        <_>
          <internalNodes>
            0 -1 17 -2.7944169938564301e-02</internalNodes>
          <leafValues>
            -1.8811881542205811e-01 -8.2879376411437988e-01</leafValues></_>
        <_>
          <internalNodes>
            0 -1 99 -5.0064222887158394e-03</internalNodes>
          <leafValues>
            1.4904861152172089e-01 -5.5819708108901978e-01</leafValues></_>
        <_>
          <internalNodes>
            0 -1 96 -2.7321828529238701e-03</internalNodes>
          <leafValues>
            -1. 9.9979169666767120e-02</leafValues></_>
        <_>
          <internalNodes>
            0 -1 0 -1.6238822718150914e-04</internalNodes>
          <leafValues>
            -5.1627099514007568e-01 2.4053192138671875e-01</leafValues></_>
        <_>
          <internalNodes>
            0 -1 93 6.4685389399528503e-02</internalNodes>
          <leafValues>
            -2.1570329368114471e-01 6.4630728960037231e-01</leafValues></_>
        <_>
          <internalNodes>
            0 -1 57 -8.1487586721777916e-03</internalNodes>
          <leafValues>
            4.6320962905883789e-01 -3.2867854833602905e-01</leafValues></_>
        <_>
          <internalNodes>
            0 -1 64 6.7757768556475639e-04</internalNodes>
          <leafValues>
            1.6814689338207245e-01 -7.8635650873184204e-01</leafValues></_>
        <_>
          <internalNodes>
            0 -1 116 -2.6125987060368061e-03</internalNodes>
          <leafValues>
            4.3094500899314880e-01 -3.1386959552764893e-01</leafValues></_></weakClassifiers></_>
    <!-- stage 14 -->
    <_>
      <maxWeakCount>9</maxWeakCount>
      <stageThreshold>-1.9452766180038452e+00</stageThreshold>
      <weakClassifiers>
        <_>
          <internalNodes>
            0 -1 91 5.5896691046655178e-03</internalNodes>
          <leafValues>
            -8.4631359577178955e-01 -3.3734938502311707e-01</leafValues></_>
        <_>
          <internalNodes>
            0 -1 114 8.5549745708703995e-03</internalNodes>
          <leafValues>
            -4.5804476737976074e-01 3.5617482662200928e-01</leafValues></_>
        <_>
          <internalNodes>
            0 -1 52 -3.5049639642238617e-02</internalNodes>
          <leafValues>
            -9.0179336071014404e-01 1.1148334294557571e-01</leafValues></_>
        <_>
          <internalNodes>
            0 -1 55 3.6182455718517303e-02</internalNodes>
          <leafValues>
            1.7957457900047302e-01 -7.8802192211151123e-01</leafValues></_>
        <_>
          <internalNodes>
            0 -1 13 -1.9794483669102192e-03</internalNodes>
          <leafValues>
            5.1079022884368896e-01 -2.9491540789604187e-01</leafValues></_>
        <_>
          <internalNodes>
            0 -1 66 3.0683074146509171e-04</internalNodes>
          <leafValues>
            -4.1946381330490112e-01 2.9128453135490417e-01</leafValues></_>
        <_>
          <internalNodes>
            0 -1 115 1.0290984995663166e-02</internalNodes>
          <leafValues>
            -2.0881597697734833e-01 6.2402683496475220e-01</leafValues></_>
        <_>
          <internalNodes>
            0 -1 77 -1.5678757335990667e-05</internalNodes>
          <leafValues>
            2.3940378427505493e-01 -6.5738177299499512e-01</leafValues></_>
        <_>
          <internalNodes>
            0 -1 12 6.8963821977376938e-03</internalNodes>
          <leafValues>
            -2.4818468093872070e-01 7.0439338684082031e-01</leafValues></_></weakClassifiers></_>
    <!-- stage 15 -->
    <_>
      <maxWeakCount>9</maxWeakCount>
      <stageThreshold>-1.9446440935134888e+00</stageThreshold>
      <weakClassifiers>
        <_>
          <internalNodes>
            0 -1 34 4.1222251951694489e-02</internalNodes>
          <leafValues>
            -8.1209301948547363e-01 3.7037037312984467e-02</leafValues></_>
        <_>
          <internalNodes>
            0 -1 51 -7.2438776493072510e-02</internalNodes>
          <leafValues>
            2.8044676780700684e-01 -4.8324325680732727e-01</leafValues></_>
        <_>
          <internalNodes>
            0 -1 15 1.4249999076128006e-03</internalNodes>
          <leafValues>
            -2.0868889987468719e-01 5.4789453744888306e-01</leafValues></_>
        <_>
          <internalNodes>
            0 -1 1 9.8608469124883413e-04</internalNodes>
          <leafValues>
            1.3756936788558960e-01 -8.3823484182357788e-01</leafValues></_>
        <_>
          <internalNodes>
            0 -1 117 -6.1020161956548691e-03</internalNodes>
          <leafValues>
            4.9279969930648804e-01 -2.1140855550765991e-01</leafValues></_>
        <_>
          <internalNodes>
            0 -1 18 -4.5915767550468445e-02</internalNodes>
          <leafValues>
            6.7975157499313354e-01 -1.5019719302654266e-01</leafValues></_>
        <_>
          <internalNodes>
            0 -1 41 1.5941888093948364e-02</internalNodes>
          <leafValues>
            -3.6124619841575623e-01 4.2728006839752197e-01</leafValues></_>
        <_>
          <internalNodes>
            0 -1 92 -2.7682813815772533e-03</internalNodes>
          <leafValues>
            4.0511921048164368e-01 -3.1039854884147644e-01</leafValues></_>
        <_>
          <internalNodes>
            0 -1 104 -1.4086052033235319e-05</internalNodes>
          <leafValues>
            3.0385178327560425e-01 -3.7488657236099243e-01</leafValues></_></weakClassifiers></_>
    <!-- stage 16 -->
    <_>
      <maxWeakCount>9</maxWeakCount>
      <stageThreshold>-1.7362184524536133e+00</stageThreshold>
      <weakClassifiers>
        <_>
          <internalNodes>
            0 -1 59 -1.8503037095069885e-01</internalNodes>
          <leafValues>
            4.7368422150611877e-01 -7.9279279708862305e-01</leafValues></_>
        <_>
          <internalNodes>
            0 -1 78 2.7222502976655960e-03</internalNodes>
          <leafValues>
            -5.3422683477401733e-01 7.8677766025066376e-02</leafValues></_>
        <_>
          <internalNodes>
            0 -1 80 -1.5850539784878492e-03</internalNodes>
          <leafValues>
            -9.1411638259887695e-01 1.1649850755929947e-01</leafValues></_>
        <_>
          <internalNodes>
            0 -1 4 7.0326607674360275e-03</internalNodes>
          <leafValues>
            1.1181151121854782e-01 -9.0055632591247559e-01</leafValues></_>
        <_>
          <internalNodes>
            0 -1 14 -1.1576155666261911e-03</internalNodes>
          <leafValues>
            5.3631657361984253e-01 -2.1539321541786194e-01</leafValues></_>
        <_>
          <internalNodes>
            0 -1 126 5.5422987788915634e-03</internalNodes>
          <leafValues>
            1.8174208700656891e-01 -6.5756207704544067e-01</leafValues></_>
        <_>
          <internalNodes>
            0 -1 67 -2.0540012046694756e-03</internalNodes>
          <leafValues>
            1.9630292057991028e-01 -4.7046387195587158e-01</leafValues></_>
        <_>
          <internalNodes>
            0 -1 87 -5.4146577604115009e-03</internalNodes>
          <leafValues>
            -8.8208705186843872e-01 1.1364098638296127e-01</leafValues></_>
        <_>
          <internalNodes>
            0 -1 105 -2.6613386580720544e-04</internalNodes>
          <leafValues>
            4.2021986842155457e-01 -2.4703483283519745e-01</leafValues></_></weakClassifiers></_>
    <!-- stage 17 -->
    <_>
      <maxWeakCount>10</maxWeakCount>
      <stageThreshold>-1.6088898181915283e+00</stageThreshold>
      <weakClassifiers>
        <_>
          <internalNodes>
            0 -1 122 9.1120265424251556e-03</internalNodes>
          <leafValues>
            -8.2504969835281372e-01 -3.3333334326744080e-01</leafValues></_>
        <_>
          <internalNodes>
            0 -1 38 1.4189680106937885e-02</internalNodes>
          <leafValues>
            -4.8172152042388916e-01 1.9109614193439484e-01</leafValues></_>
        <_>
          <internalNodes>
            0 -1 62 7.7664956916123629e-04</internalNodes>
          <leafValues>
            1.0486150532960892e-01 -8.3174747228622437e-01</leafValues></_>
        <_>
          <internalNodes>
            0 -1 60 2.6260281447321177e-03</internalNodes>
          <leafValues>
            -2.6957246661186218e-01 4.4202730059623718e-01</leafValues></_>
        <_>
          <internalNodes>
            0 -1 32 -3.9789479225873947e-02</internalNodes>
          <leafValues>
            1.9219768047332764e-01 -4.4226050376892090e-01</leafValues></_>
        <_>
          <internalNodes>
            0 -1 124 5.6986156851053238e-03</internalNodes>
          <leafValues>
            -2.0344997942447662e-01 5.4676276445388794e-01</leafValues></_>
        <_>
          <internalNodes>
            0 -1 88 9.1201881878077984e-04</internalNodes>
          <leafValues>
            1.6460910439491272e-01 -6.9143831729888916e-01</leafValues></_>
        <_>
          <internalNodes>
            0 -1 76 -1.5869694470893592e-04</internalNodes>
          <leafValues>
            1.4516352117061615e-01 -7.1308368444442749e-01</leafValues></_>
        <_>
          <internalNodes>
            0 -1 68 -4.6025138348340988e-02</internalNodes>
          <leafValues>
            -8.7641727924346924e-01 9.3250907957553864e-02</leafValues></_>
        <_>
          <internalNodes>
            0 -1 14 8.8300905190408230e-04</internalNodes>
          <leafValues>
            -2.3047702014446259e-01 5.5187773704528809e-01</leafValues></_></weakClassifiers></_></stages>
  <features>
    <_>
      <rects>
        <_>
          0 0 1 2 -1.</_>
        <_>
          0 1 1 1 2.</_></rects>
      <tilted>0</tilted></_>
    <_>
      <rects>
        <_>
          0 0 4 2 -1.</_>
        <_>
          0 1 4 1 2.</_></rects>
      <tilted>0</tilted></_>
    <_>
      <rects>
        <_>
          0 0 12 10 -1.</_>
        <_>
          0 0 6 5 2.</_>
        <_>
          6 5 6 5 2.</_></rects>
      <tilted>0</tilted></_>
    <_>
      <rects>
        <_>
          0 0 14 8 -1.</_>
        <_>
          0 0 7 4 2.</_>
        <_>
          7 4 7 4 2.</_></rects>
      <tilted>0</tilted></_>
    <_>
      <rects>
        <_>
          0 2 1 10 -1.</_>
        <_>
          0 7 1 5 2.</_></rects>
      <tilted>0</tilted></_>
    <_>
      <rects>
        <_>
          0 2 3 17 -1.</_>
        <_>
          1 2 1 17 3.</_></rects>
      <tilted>0</tilted></_>
    <_>
      <rects>
        <_>
          0 3 6 16 -1.</_>
        <_>
          2 3 2 16 3.</_></rects>
      <tilted>0</tilted></_>
    <_>
      <rects>
        <_>
          0 3 4 21 -1.</_>
        <_>
          2 3 2 21 2.</_></rects>
      <tilted>0</tilted></_>
    <_>
      <rects>
        <_>
          0 4 6 6 -1.</_>
        <_>
          3 4 3 6 2.</_></rects>
      <tilted>0</tilted></_>
    <_>
      <rects>
        <_>
          0 6 2 1 -1.</_>
        <_>
          1 6 1 1 2.</_></rects>
      <tilted>0</tilted></_>
    <_>
      <rects>
        <_>
          0 6 22 12 -1.</_>
        <_>
          0 12 22 6 2.</_></rects>
      <tilted>0</tilted></_>
    <_>
      <rects>
        <_>
          0 7 3 4 -1.</_>
        <_>
          1 7 1 4 3.</_></rects>
      <tilted>0</tilted></_>
    <_>
      <rects>
        <_>
          0 7 3 16 -1.</_>
        <_>
          1 7 1 16 3.</_></rects>
      <tilted>0</tilted></_>
    <_>
      <rects>
        <_>
          0 8 3 3 -1.</_>
        <_>
          1 8 1 3 3.</_></rects>
      <tilted>0</tilted></_>
    <_>
      <rects>
        <_>
          0 11 3 1 -1.</_>
        <_>
          1 11 1 1 3.</_></rects>
      <tilted>0</tilted></_>
    <_>
      <rects>
        <_>
          0 13 2 4 -1.</_>
        <_>
          0 13 1 2 2.</_>
        <_>
          1 15 1 2 2.</_></rects>
      <tilted>0</tilted></_>
    <_>
      <rects>
        <_>
          0 13 24 11 -1.</_>
        <_>
          8 13 8 11 3.</_></rects>
      <tilted>0</tilted></_>
    <_>
      <rects>
        <_>
          0 16 6 8 -1.</_>
        <_>
          0 16 3 4 2.</_>
        <_>
          3 20 3 4 2.</_></rects>
      <tilted>0</tilted></_>
    <_>
      <rects>
        <_>
          0 17 8 7 -1.</_>
        <_>
          4 17 4 7 2.</_></rects>
      <tilted>0</tilted></_>
    <_>
      <rects>
        <_>
          0 18 6 3 -1.</_>
        <_>
          2 18 2 3 3.</_></rects>
      <tilted>0</tilted></_>
    <_>
      <rects>
        <_>
          0 19 24 4 -1.</_>
        <_>
          8 19 8 4 3.</_></rects>
      <tilted>0</tilted></_>
    <_>
      <rects>
        <_>
          0 20 9 3 -1.</_>
        <_>
          3 20 3 3 3.</_></rects>
      <tilted>0</tilted></_>
    <_>
      <rects>
        <_>
          0 20 16 3 -1.</_>
        <_>
          8 20 8 3 2.</_></rects>
      <tilted>0</tilted></_>
    <_>
      <rects>
        <_>
          0 22 16 2 -1.</_>
        <_>
          0 22 8 1 2.</_>
        <_>
          8 23 8 1 2.</_></rects>
      <tilted>0</tilted></_>
    <_>
      <rects>
        <_>
          1 1 4 10 -1.</_>
        <_>
          1 1 2 5 2.</_>
        <_>
          3 6 2 5 2.</_></rects>
      <tilted>0</tilted></_>
    <_>
      <rects>
        <_>
          1 1 3 2 -1.</_>
        <_>
          1 2 3 1 2.</_></rects>
      <tilted>0</tilted></_>
    <_>
      <rects>
        <_>
          1 1 10 6 -1.</_>
        <_>
          1 1 5 3 2.</_>
        <_>
          6 4 5 3 2.</_></rects>
      <tilted>0</tilted></_>
    <_>
      <rects>
        <_>
          1 1 12 6 -1.</_>
        <_>
          1 1 6 3 2.</_>
        <_>
          7 4 6 3 2.</_></rects>
      <tilted>0</tilted></_>
    <_>
      <rects>
        <_>
          1 2 4 8 -1.</_>
        <_>
          1 2 2 4 2.</_>
        <_>
          3 6 2 4 2.</_></rects>
      <tilted>0</tilted></_>
    <_>
      <rects>
        <_>
          1 2 6 6 -1.</_>
        <_>
          1 2 3 3 2.</_>
        <_>
          4 5 3 3 2.</_></rects>
      <tilted>0</tilted></_>
    <_>
      <rects>
        <_>
          1 6 23 14 -1.</_>
        <_>
          1 13 23 7 2.</_></rects>
      <tilted>0</tilted></_>
    <_>
      <rects>
        <_>
          1 10 19 3 -1.</_>
        <_>
          1 11 19 1 3.</_></rects>
      <tilted>0</tilted></_>
    <_>
      <rects>
        <_>
          1 12 11 12 -1.</_>
        <_>
          1 18 11 6 2.</_></rects>
      <tilted>0</tilted></_>
    <_>
      <rects>
        <_>
          1 18 12 5 -1.</_>
        <_>
          7 18 6 5 2.</_></rects>
      <tilted>0</tilted></_>
    <_>
      <rects>
        <_>
          1 21 21 1 -1.</_>
        <_>
          8 21 7 1 3.</_></rects>
      <tilted>0</tilted></_>
    <_>
      <rects>
        <_>
          2 0 14 1 -1.</_>
        <_>
          9 0 7 1 2.</_></rects>
      <tilted>0</tilted></_>
    <_>
      <rects>
        <_>
          2 0 9 2 -1.</_>
        <_>
          2 1 9 1 2.</_></rects>
      <tilted>0</tilted></_>
    <_>
      <rects>
        <_>
          2 0 18 3 -1.</_>
        <_>
          2 1 18 1 3.</_></rects>
      <tilted>0</tilted></_>
    <_>
      <rects>
        <_>
          2 1 8 4 -1.</_>
        <_>
          2 1 4 2 2.</_>
        <_>
          6 3 4 2 2.</_></rects>
      <tilted>0</tilted></_>
    <_>
      <rects>
        <_>
          2 2 20 18 -1.</_>
        <_>
          2 11 20 9 2.</_></rects>
      <tilted>0</tilted></_>
    <_>
      <rects>
        <_>
          2 10 19 6 -1.</_>
        <_>
          2 12 19 2 3.</_></rects>
      <tilted>0</tilted></_>
    <_>
      <rects>
        <_>
          2 16 12 7 -1.</_>
        <_>
          6 16 4 7 3.</_></rects>
      <tilted>0</tilted></_>
    <_>
      <rects>
        <_>
          3 0 16 2 -1.</_>
        <_>
          3 1 16 1 2.</_></rects>
      <tilted>0</tilted></_>
    <_>
      <rects>
        <_>
          3 3 2 2 -1.</_>
        <_>
          3 3 1 1 2.</_>
        <_>
          4 4 1 1 2.</_></rects>
      <tilted>0</tilted></_>
    <_>
      <rects>
        <_>
          4 0 16 6 -1.</_>
        <_>
          4 2 16 2 3.</_></rects>
      <tilted>0</tilted></_>
    <_>
      <rects>
        <_>
          4 7 4 4 -1.</_>
        <_>
          4 7 2 2 2.</_>
        <_>
          6 9 2 2 2.</_></rects>
      <tilted>0</tilted></_>
    <_>
      <rects>
        <_>
          4 8 14 6 -1.</_>
        <_>
          4 10 14 2 3.</_></rects>
      <tilted>0</tilted></_>
    <_>
      <rects>
        <_>
          4 15 14 4 -1.</_>
        <_>
          4 15 7 2 2.</_>
        <_>
          11 17 7 2 2.</_></rects>
      <tilted>0</tilted></_>
    <_>
      <rects>
        <_>
          4 20 17 4 -1.</_>
        <_>
          4 22 17 2 2.</_></rects>
      <tilted>0</tilted></_>
    <_>
      <rects>
        <_>
          4 20 18 4 -1.</_>
        <_>
          4 22 18 2 2.</_></rects>
      <tilted>0</tilted></_>
    <_>
      <rects>
        <_>
          5 0 11 2 -1.</_>
        <_>
          5 1 11 1 2.</_></rects>
      <tilted>0</tilted></_>
    <_>
      <rects>
        <_>
          5 0 15 6 -1.</_>
        <_>
          5 2 15 2 3.</_></rects>
      <tilted>0</tilted></_>
    <_>
      <rects>
        <_>
          5 10 12 14 -1.</_>
        <_>
          5 10 6 7 2.</_>
        <_>
          11 17 6 7 2.</_></rects>
      <tilted>0</tilted></_>
    <_>
      <rects>
        <_>
          6 0 15 3 -1.</_>
        <_>
          6 1 15 1 3.</_></rects>
      <tilted>0</tilted></_>
    <_>
      <rects>
        <_>
          6 7 14 6 -1.</_>
        <_>
          6 9 14 2 3.</_></rects>
      <tilted>0</tilted></_>
    <_>
      <rects>
        <_>
          6 10 14 14 -1.</_>
        <_>
          6 10 7 7 2.</_>
        <_>
          13 17 7 7 2.</_></rects>
      <tilted>0</tilted></_>
    <_>
      <rects>
        <_>
          6 16 15 8 -1.</_>
        <_>
          6 20 15 4 2.</_></rects>
      <tilted>0</tilted></_>
    <_>
      <rects>
        <_>
          6 22 12 2 -1.</_>
        <_>
          6 23 12 1 2.</_></rects>
      <tilted>0</tilted></_>
    <_>
      <rects>
        <_>
          7 1 10 9 -1.</_>
        <_>
          7 4 10 3 3.</_></rects>
      <tilted>0</tilted></_>
    <_>
      <rects>
        <_>
          7 8 13 12 -1.</_>
        <_>
          7 14 13 6 2.</_></rects>
      <tilted>0</tilted></_>
    <_>
      <rects>
        <_>
          8 4 2 18 -1.</_>
        <_>
          9 4 1 18 2.</_></rects>
      <tilted>0</tilted></_>
    <_>
      <rects>
        <_>
          8 14 2 10 -1.</_>
        <_>
          8 19 2 5 2.</_></rects>
      <tilted>0</tilted></_>
    <_>
      <rects>
        <_>
          8 18 2 2 -1.</_>
        <_>
          9 18 1 2 2.</_></rects>
      <tilted>0</tilted></_>
    <_>
      <rects>
        <_>
          8 21 1 2 -1.</_>
        <_>
          8 22 1 1 2.</_></rects>
      <tilted>0</tilted></_>
    <_>
      <rects>
        <_>
          9 0 3 3 -1.</_>
        <_>
          10 0 1 3 3.</_></rects>
      <tilted>0</tilted></_>
    <_>
      <rects>
        <_>
          9 0 3 4 -1.</_>
        <_>
          10 0 1 4 3.</_></rects>
      <tilted>0</tilted></_>
    <_>
      <rects>
        <_>
          9 0 2 14 -1.</_>
        <_>
          10 0 1 14 2.</_></rects>
      <tilted>0</tilted></_>
    <_>
      <rects>
        <_>
          9 0 12 4 -1.</_>
        <_>
          9 0 6 2 2.</_>
        <_>
          15 2 6 2 2.</_></rects>
      <tilted>0</tilted></_>
    <_>
      <rects>
        <_>
          9 16 9 6 -1.</_>
        <_>
          9 19 9 3 2.</_></rects>
      <tilted>0</tilted></_>
    <_>
      <rects>
        <_>
          10 0 5 10 -1.</_>
        <_>
          10 5 5 5 2.</_></rects>
      <tilted>0</tilted></_>
    <_>
      <rects>
        <_>
          10 0 9 6 -1.</_>
        <_>
          10 2 9 2 3.</_></rects>
      <tilted>0</tilted></_>
    <_>
      <rects>
        <_>
          10 1 2 2 -1.</_>
        <_>
          11 1 1 2 2.</_></rects>
      <tilted>0</tilted></_>
    <_>
      <rects>
        <_>
          10 1 3 4 -1.</_>
        <_>
          11 1 1 4 3.</_></rects>
      <tilted>0</tilted></_>
    <_>
      <rects>
        <_>
          10 1 1 10 -1.</_>
        <_>
          10 6 1 5 2.</_></rects>
      <tilted>0</tilted></_>
    <_>
      <rects>
        <_>
          10 1 4 1 -1.</_>
        <_>
          12 1 2 1 2.</_></rects>
      <tilted>0</tilted></_>
    <_>
      <rects>
        <_>
          10 1 14 4 -1.</_>
        <_>
          10 1 7 2 2.</_>
        <_>
          17 3 7 2 2.</_></rects>
      <tilted>0</tilted></_>
    <_>
      <rects>
        <_>
          10 17 1 6 -1.</_>
        <_>
          10 20 1 3 2.</_></rects>
      <tilted>0</tilted></_>
    <_>
      <rects>
        <_>
          10 18 3 4 -1.</_>
        <_>
          10 20 3 2 2.</_></rects>
      <tilted>0</tilted></_>
    <_>
      <rects>
        <_>
          10 22 12 2 -1.</_>
        <_>
          10 22 6 1 2.</_>
        <_>
          16 23 6 1 2.</_></rects>
      <tilted>0</tilted></_>
    <_>
      <rects>
        <_>
          11 1 3 3 -1.</_>
        <_>
          12 1 1 3 3.</_></rects>
      <tilted>0</tilted></_>
    <_>
      <rects>
        <_>
          11 2 3 7 -1.</_>
        <_>
          12 2 1 7 3.</_></rects>
      <tilted>0</tilted></_>
    <_>
      <rects>
        <_>
          11 5 1 12 -1.</_>
        <_>
          11 9 1 4 3.</_></rects>
      <tilted>0</tilted></_>
    <_>
      <rects>
        <_>
          12 0 3 3 -1.</_>
        <_>
          13 0 1 3 3.</_></rects>
      <tilted>0</tilted></_>
    <_>
      <rects>
        <_>
          12 2 3 2 -1.</_>
        <_>
          13 2 1 2 3.</_></rects>
      <tilted>0</tilted></_>
    <_>
      <rects>
        <_>
          12 14 8 6 -1.</_>
        <_>
          12 14 4 3 2.</_>
        <_>
          16 17 4 3 2.</_></rects>
      <tilted>0</tilted></_>
    <_>
      <rects>
        <_>
          12 17 3 6 -1.</_>
        <_>
          13 17 1 6 3.</_></rects>
      <tilted>0</tilted></_>
    <_>
      <rects>
        <_>
          12 17 3 7 -1.</_>
        <_>
          13 17 1 7 3.</_></rects>
      <tilted>0</tilted></_>
    <_>
      <rects>
        <_>
          12 19 6 5 -1.</_>
        <_>
          14 19 2 5 3.</_></rects>
      <tilted>0</tilted></_>
    <_>
      <rects>
        <_>
          13 0 3 4 -1.</_>
        <_>
          14 0 1 4 3.</_></rects>
      <tilted>0</tilted></_>
    <_>
      <rects>
        <_>
          13 2 10 4 -1.</_>
        <_>
          13 2 5 2 2.</_>
        <_>
          18 4 5 2 2.</_></rects>
      <tilted>0</tilted></_>
    <_>
      <rects>
        <_>
          13 3 3 1 -1.</_>
        <_>
          14 3 1 1 3.</_></rects>
      <tilted>0</tilted></_>
    <_>
      <rects>
        <_>
          14 0 10 2 -1.</_>
        <_>
          14 0 5 1 2.</_>
        <_>
          19 1 5 1 2.</_></rects>
      <tilted>0</tilted></_>
    <_>
      <rects>
        <_>
          14 8 7 3 -1.</_>
        <_>
          14 9 7 1 3.</_></rects>
      <tilted>0</tilted></_>
    <_>
      <rects>
        <_>
          14 12 10 12 -1.</_>
        <_>
          19 12 5 12 2.</_></rects>
      <tilted>0</tilted></_>
    <_>
      <rects>
        <_>
          14 19 10 3 -1.</_>
        <_>
          19 19 5 3 2.</_></rects>
      <tilted>0</tilted></_>
    <_>
      <rects>
        <_>
          14 20 10 4 -1.</_>
        <_>
          14 20 5 2 2.</_>
        <_>
          19 22 5 2 2.</_></rects>
      <tilted>0</tilted></_>
    <_>
      <rects>
        <_>
          15 0 3 5 -1.</_>
        <_>
          16 0 1 5 3.</_></rects>
      <tilted>0</tilted></_>
    <_>
      <rects>
        <_>
          15 1 8 8 -1.</_>
        <_>
          15 1 4 4 2.</_>
        <_>
          19 5 4 4 2.</_></rects>
      <tilted>0</tilted></_>
    <_>
      <rects>
        <_>
          15 2 3 5 -1.</_>
        <_>
          16 2 1 5 3.</_></rects>
      <tilted>0</tilted></_>
    <_>
      <rects>
        <_>
          15 4 9 1 -1.</_>
        <_>
          18 4 3 1 3.</_></rects>
      <tilted>0</tilted></_>
    <_>
      <rects>
        <_>
          15 14 4 6 -1.</_>
        <_>
          15 17 4 3 2.</_></rects>
      <tilted>0</tilted></_>
    <_>
      <rects>
        <_>
          15 15 2 9 -1.</_>
        <_>
          15 18 2 3 3.</_></rects>
      <tilted>0</tilted></_>
    <_>
      <rects>
        <_>
          15 15 3 6 -1.</_>
        <_>
          15 18 3 3 2.</_></rects>
      <tilted>0</tilted></_>
    <_>
      <rects>
        <_>
          15 18 8 5 -1.</_>
        <_>
          19 18 4 5 2.</_></rects>
      <tilted>0</tilted></_>
    <_>
      <rects>
        <_>
          16 1 2 2 -1.</_>
        <_>
          16 1 1 1 2.</_>
        <_>
          17 2 1 1 2.</_></rects>
      <tilted>0</tilted></_>
    <_>
      <rects>
        <_>
          16 9 2 2 -1.</_>
        <_>
          16 9 1 1 2.</_>
        <_>
          17 10 1 1 2.</_></rects>
      <tilted>0</tilted></_>
    <_>
      <rects>
        <_>
          17 0 6 1 -1.</_>
        <_>
          20 0 3 1 2.</_></rects>
      <tilted>0</tilted></_>
    <_>
      <rects>
        <_>
          17 7 2 1 -1.</_>
        <_>
          18 7 1 1 2.</_></rects>
      <tilted>0</tilted></_>
    <_>
      <rects>
        <_>
          18 3 6 6 -1.</_>
        <_>
          20 3 2 6 3.</_></rects>
      <tilted>0</tilted></_>
    <_>
      <rects>
        <_>
          18 4 6 6 -1.</_>
        <_>
          20 4 2 6 3.</_></rects>
      <tilted>0</tilted></_>
    <_>
      <rects>
        <_>
          18 16 6 7 -1.</_>
        <_>
          21 16 3 7 2.</_></rects>
      <tilted>0</tilted></_>
    <_>
      <rects>
        <_>
          18 18 6 3 -1.</_>
        <_>
          20 18 2 3 3.</_></rects>
      <tilted>0</tilted></_>
    <_>
      <rects>
        <_>
          19 0 4 14 -1.</_>
        <_>
          19 0 2 7 2.</_>
        <_>
          21 7 2 7 2.</_></rects>
      <tilted>0</tilted></_>
    <_>
      <rects>
        <_>
          19 3 4 6 -1.</_>
        <_>
          19 3 2 3 2.</_>
        <_>
          21 6 2 3 2.</_></rects>
      <tilted>0</tilted></_>
    <_>
      <rects>
        <_>
          19 18 4 6 -1.</_>
        <_>
          19 18 2 3 2.</_>
        <_>
          21 21 2 3 2.</_></rects>
      <tilted>0</tilted></_>
    <_>
      <rects>
        <_>
          20 15 4 4 -1.</_>
        <_>
          22 15 2 4 2.</_></rects>
      <tilted>0</tilted></_>
    <_>
      <rects>
        <_>
          21 4 3 6 -1.</_>
        <_>
          22 4 1 6 3.</_></rects>
      <tilted>0</tilted></_>
    <_>
      <rects>
        <_>
          21 4 2 18 -1.</_>
        <_>
          21 4 1 9 2.</_>
        <_>
          22 13 1 9 2.</_></rects>
      <tilted>0</tilted></_>
    <_>
      <rects>
        <_>
          21 6 3 8 -1.</_>
        <_>
          22 6 1 8 3.</_></rects>
      <tilted>0</tilted></_>
    <_>
      <rects>
        <_>
          21 6 3 10 -1.</_>
        <_>
          22 6 1 10 3.</_></rects>
      <tilted>0</tilted></_>
    <_>
      <rects>
        <_>
          21 6 3 11 -1.</_>
        <_>
          22 6 1 11 3.</_></rects>
      <tilted>0</tilted></_>
    <_>
      <rects>
        <_>
          21 14 3 2 -1.</_>
        <_>
          22 14 1 2 3.</_></rects>
      <tilted>0</tilted></_>
    <_>
      <rects>
        <_>
          22 0 2 12 -1.</_>
        <_>
          22 0 1 6 2.</_>
        <_>
          23 6 1 6 2.</_></rects>
      <tilted>0</tilted></_>
    <_>
      <rects>
        <_>
          22 5 2 7 -1.</_>
        <_>
          23 5 1 7 2.</_></rects>
      <tilted>0</tilted></_>
    <_>
      <rects>
        <_>
          22 11 2 6 -1.</_>
        <_>
          23 11 1 6 2.</_></rects>
      <tilted>0</tilted></_>
    <_>
      <rects>
        <_>
          23 0 1 4 -1.</_>
        <_>
          23 2 1 2 2.</_></rects>
      <tilted>0</tilted></_>
    <_>
      <rects>
        <_>
          23 3 1 15 -1.</_>
        <_>
          23 8 1 5 3.</_></rects>
      <tilted>0</tilted></_></features></cascade>
</opencv_storage>
