<?xml version="1.0"?>
<opencv_storage>
<stage3>
  <maxWeakCount>7</maxWeakCount>
  <stageThreshold>-1.8958492279052734e+00</stageThreshold>
  <weakClassifiers>
    <_>
      <internalNodes>
        0 -1 161550 1.0109605267643929e-02</internalNodes>
      <leafValues>
        -8.5808891057968140e-01 4.6268656849861145e-01</leafValues></_>
    <_>
      <internalNodes>
        0 -1 2434 2.6590213179588318e-02</internalNodes>
      <leafValues>
        -6.3854682445526123e-01 3.6794033646583557e-01</leafValues></_>
    <_>
      <internalNodes>
        0 -1 12921 1.1479674279689789e-01</internalNodes>
      <leafValues>
        -3.4050279855728149e-01 7.9563182592391968e-01</leafValues></_>
    <_>
      <internalNodes>
        0 -1 26791 -1.8517877906560898e-02</internalNodes>
      <leafValues>
        4.1373777389526367e-01 -5.4958981275558472e-01</leafValues></_>
    <_>
      <internalNodes>
        0 -1 76210 -2.2403545677661896e-02</internalNodes>
      <leafValues>
        6.3126945495605469e-01 -3.9116227626800537e-01</leafValues></_>
    <_>
      <internalNodes>
        0 -1 152768 -1.3198781758546829e-02</internalNodes>
      <leafValues>
        6.1805647611618042e-01 -3.0444857478141785e-01</leafValues></_>
    <_>
      <internalNodes>
        0 -1 161331 1.8763435946311802e-04</internalNodes>
      <leafValues>
        2.2316238284111023e-01 -9.0915542840957642e-01</leafValues></_></weakClassifiers></stage3>
</opencv_storage>
