<?xml version="1.0"?>
<opencv_storage>
<stage16>
  <maxWeakCount>9</maxWeakCount>
  <stageThreshold>-1.7362184524536133e+00</stageThreshold>
  <weakClassifiers>
    <_>
      <internalNodes>
        0 -1 86214 -1.8503037095069885e-01</internalNodes>
      <leafValues>
        4.7368422150611877e-01 -7.9279279708862305e-01</leafValues></_>
    <_>
      <internalNodes>
        0 -1 114388 2.7222502976655960e-03</internalNodes>
      <leafValues>
        -5.3422683477401733e-01 7.8677766025066376e-02</leafValues></_>
    <_>
      <internalNodes>
        0 -1 115546 -1.5850539784878492e-03</internalNodes>
      <leafValues>
        -9.1411638259887695e-01 1.1649850755929947e-01</leafValues></_>
    <_>
      <internalNodes>
        0 -1 2149 7.0326607674360275e-03</internalNodes>
      <leafValues>
        1.1181151121854782e-01 -9.0055632591247559e-01</leafValues></_>
    <_>
      <internalNodes>
        0 -1 9438 -1.1576155666261911e-03</internalNodes>
      <leafValues>
        5.3631657361984253e-01 -2.1539321541786194e-01</leafValues></_>
    <_>
      <internalNodes>
        0 -1 162165 5.5422987788915634e-03</internalNodes>
      <leafValues>
        1.8174208700656891e-01 -6.5756207704544067e-01</leafValues></_>
    <_>
      <internalNodes>
        0 -1 99059 -2.0540012046694756e-03</internalNodes>
      <leafValues>
        1.9630292057991028e-01 -4.7046387195587158e-01</leafValues></_>
    <_>
      <internalNodes>
        0 -1 127775 -5.4146577604115009e-03</internalNodes>
      <leafValues>
        -8.8208705186843872e-01 1.1364098638296127e-01</leafValues></_>
    <_>
      <internalNodes>
        0 -1 146632 -2.6613386580720544e-04</internalNodes>
      <leafValues>
        4.2021986842155457e-01 -2.4703483283519745e-01</leafValues></_></weakClassifiers></stage16>
</opencv_storage>
