<?xml version="1.0"?>
<opencv_storage>
<stage5>
  <maxWeakCount>6</maxWeakCount>
  <stageThreshold>-1.6461675167083740e+00</stageThreshold>
  <weakClassifiers>
    <_>
      <internalNodes>
        0 -1 160410 -1.2349592521786690e-02</internalNodes>
      <leafValues>
        3.3333334326744080e-01 -8.3348923921585083e-01</leafValues></_>
    <_>
      <internalNodes>
        0 -1 15525 1.3893123716115952e-02</internalNodes>
      <leafValues>
        -5.6923413276672363e-01 3.1178537011146545e-01</leafValues></_>
    <_>
      <internalNodes>
        0 -1 143422 9.2387432232499123e-05</internalNodes>
      <leafValues>
        1.6807539761066437e-01 -8.6771869659423828e-01</leafValues></_>
    <_>
      <internalNodes>
        0 -1 162102 7.3627626989036798e-04</internalNodes>
      <leafValues>
        1.5443170070648193e-01 -8.4666359424591064e-01</leafValues></_>
    <_>
      <internalNodes>
        0 -1 25121 6.7968010902404785e-02</internalNodes>
      <leafValues>
        -2.6524856686592102e-01 6.8248611688613892e-01</leafValues></_>
    <_>
      <internalNodes>
        0 -1 10839 -1.1410102248191833e-01</internalNodes>
      <leafValues>
        7.0351105928421021e-01 -2.4734205007553101e-01</leafValues></_></weakClassifiers></stage5>
</opencv_storage>
