<?xml version="1.0"?>
<opencv_storage>
<stage11>
  <maxWeakCount>9</maxWeakCount>
  <stageThreshold>-1.7534178495407104e+00</stageThreshold>
  <weakClassifiers>
    <_>
      <internalNodes>
        0 -1 4237 -3.9489623159170151e-02</internalNodes>
      <leafValues>
        3.3333334326744080e-01 -8.1734317541122437e-01</leafValues></_>
    <_>
      <internalNodes>
        0 -1 14515 1.3428941369056702e-02</internalNodes>
      <leafValues>
        -5.2637302875518799e-01 2.6415497064590454e-01</leafValues></_>
    <_>
      <internalNodes>
        0 -1 107449 5.7938741520047188e-04</internalNodes>
      <leafValues>
        -6.2313520908355713e-01 1.7278255522251129e-01</leafValues></_>
    <_>
      <internalNodes>
        0 -1 22086 -9.2363115400075912e-03</internalNodes>
      <leafValues>
        5.1036047935485840e-01 -2.6817345619201660e-01</leafValues></_>
    <_>
      <internalNodes>
        0 -1 126973 -9.0807927772402763e-03</internalNodes>
      <leafValues>
        -7.6914286613464355e-01 1.7290426790714264e-01</leafValues></_>
    <_>
      <internalNodes>
        0 -1 160936 1.5581615734845400e-03</internalNodes>
      <leafValues>
        -1.8178102374076843e-01 6.8894720077514648e-01</leafValues></_>
    <_>
      <internalNodes>
        0 -1 26709 -5.9841554611921310e-03</internalNodes>
      <leafValues>
        3.7217086553573608e-01 -3.4636804461479187e-01</leafValues></_>
    <_>
      <internalNodes>
        0 -1 117011 -1.5537538565695286e-03</internalNodes>
      <leafValues>
        3.3924803137779236e-01 -4.1870373487472534e-01</leafValues></_>
    <_>
      <internalNodes>
        0 -1 155048 -9.4325747340917587e-03</internalNodes>
      <leafValues>
        6.3484328985214233e-01 -2.5890108942985535e-01</leafValues></_></weakClassifiers></stage11>
</opencv_storage>
