<?xml version="1.0"?>
<opencv_storage>
<stage12>
  <maxWeakCount>8</maxWeakCount>
  <stageThreshold>-1.4790592193603516e+00</stageThreshold>
  <weakClassifiers>
    <_>
      <internalNodes>
        0 -1 3268 -6.4103670418262482e-02</internalNodes>
      <leafValues>
        2.1739129722118378e-01 -8.1348109245300293e-01</leafValues></_>
    <_>
      <internalNodes>
        0 -1 139058 -2.5964200496673584e-02</internalNodes>
      <leafValues>
        3.1396800279617310e-01 -5.2540624141693115e-01</leafValues></_>
    <_>
      <internalNodes>
        0 -1 26421 -7.4756628600880504e-04</internalNodes>
      <leafValues>
        2.1562647819519043e-01 -5.8023327589035034e-01</leafValues></_>
    <_>
      <internalNodes>
        0 -1 155339 -9.0142227709293365e-03</internalNodes>
      <leafValues>
        3.2504776120185852e-01 -4.1256392002105713e-01</leafValues></_>
    <_>
      <internalNodes>
        0 -1 34343 6.1238743364810944e-02</internalNodes>
      <leafValues>
        -1.4889138936996460e-01 7.6101851463317871e-01</leafValues></_>
    <_>
      <internalNodes>
        0 -1 140021 2.0736628212034702e-03</internalNodes>
      <leafValues>
        1.4295083284378052e-01 -9.8346483707427979e-01</leafValues></_>
    <_>
      <internalNodes>
        0 -1 6677 3.0550942756235600e-03</internalNodes>
      <leafValues>
        -2.3201113939285278e-01 6.8301028013229370e-01</leafValues></_>
    <_>
      <internalNodes>
        0 -1 5832 -1.3131437299307436e-05</internalNodes>
      <leafValues>
        3.5296523571014404e-01 -4.3441566824913025e-01</leafValues></_></weakClassifiers></stage12>
</opencv_storage>
