<?xml version="1.0"?>
<opencv_storage>
<stage13>
  <maxWeakCount>8</maxWeakCount>
  <stageThreshold>-1.9481196403503418e+00</stageThreshold>
  <weakClassifiers>
    <_>
      <internalNodes>
        0 -1 37712 1.1127366125583649e-01</internalNodes>
      <leafValues>
        -8.2649254798889160e-01 1.9230769574642181e-01</leafValues></_>
    <_>
      <internalNodes>
        0 -1 24456 -7.7252918854355812e-03</internalNodes>
      <leafValues>
        1.5931479632854462e-01 -5.3916794061660767e-01</leafValues></_>
    <_>
      <internalNodes>
        0 -1 38380 1.1648645158857107e-03</internalNodes>
      <leafValues>
        1.4078693091869354e-01 -7.8265237808227539e-01</leafValues></_>
    <_>
      <internalNodes>
        0 -1 107503 -5.3654995281249285e-04</internalNodes>
      <leafValues>
        -6.6706252098083496e-01 1.6015116870403290e-01</leafValues></_>
    <_>
      <internalNodes>
        0 -1 133731 1.1244318448007107e-03</internalNodes>
      <leafValues>
        -3.0922019481658936e-01 3.9687511324882507e-01</leafValues></_>
    <_>
      <internalNodes>
        0 -1 3341 -2.7385512366890907e-03</internalNodes>
      <leafValues>
        3.4876182675361633e-01 -3.9409440755844116e-01</leafValues></_>
    <_>
      <internalNodes>
        0 -1 162160 2.1154417190700769e-03</internalNodes>
      <leafValues>
        1.7540936172008514e-01 -7.4574881792068481e-01</leafValues></_>
    <_>
      <internalNodes>
        0 -1 5090 3.2079774886369705e-02</internalNodes>
      <leafValues>
        -1.7719008028507233e-01 7.9832369089126587e-01</leafValues></_></weakClassifiers></stage13>
</opencv_storage>
