<?xml version="1.0"?>
<opencv_storage>
<stage16>
  <maxWeakCount>9</maxWeakCount>
  <stageThreshold>-1.8917788267135620e+00</stageThreshold>
  <weakClassifiers>
    <_>
      <internalNodes>
        0 -1 37709 6.8695791065692902e-02</internalNodes>
      <leafValues>
        -8.3234715461730957e-01 -2.9090908169746399e-01</leafValues></_>
    <_>
      <internalNodes>
        0 -1 139324 -1.3946851715445518e-02</internalNodes>
      <leafValues>
        2.8078538179397583e-01 -4.5554491877555847e-01</leafValues></_>
    <_>
      <internalNodes>
        0 -1 157756 1.0751400841400027e-03</internalNodes>
      <leafValues>
        9.8788686096668243e-02 -9.2918926477432251e-01</leafValues></_>
    <_>
      <internalNodes>
        0 -1 162102 -4.7243188600987196e-04</internalNodes>
      <leafValues>
        -3.9469513297080994e-01 3.1652164459228516e-01</leafValues></_>
    <_>
      <internalNodes>
        0 -1 111019 1.3632555237563793e-05</internalNodes>
      <leafValues>
        -4.0283671021461487e-01 2.6980957388877869e-01</leafValues></_>
    <_>
      <internalNodes>
        0 -1 23633 -1.3880208134651184e-03</internalNodes>
      <leafValues>
        4.2493245005607605e-01 -2.7446141839027405e-01</leafValues></_>
    <_>
      <internalNodes>
        0 -1 11034 6.8541627842932940e-04</internalNodes>
      <leafValues>
        -2.2995829582214355e-01 5.2256494760513306e-01</leafValues></_>
    <_>
      <internalNodes>
        0 -1 128956 -8.1692181993275881e-04</internalNodes>
      <leafValues>
        -8.1089514493942261e-01 1.8447251617908478e-01</leafValues></_>
    <_>
      <internalNodes>
        0 -1 10574 1.7128969775512815e-03</internalNodes>
      <leafValues>
        -2.9641318321228027e-01 4.7153931856155396e-01</leafValues></_></weakClassifiers></stage16>
</opencv_storage>
